{"learner":{"attributes":{"best_iteration":"41","best_score":"1.0953427677481915"},"feature_names":["Population","area_km2","population_density","claimant_rate","poi_count","IncScore","month_nr","burglary_lag_1","burglary_lag_3","burglary_lag_12","burglary_rolling_mean_3","burglary_volatility_3","burglary_rolling_mean_6","burglary_rolling_std_6","burglary_rolling_mean_12","burglary_volatility_12","burglary_rolling_max_3","burglary_rolling_min_3","burglary_rolling_max_6","burglary_rolling_min_6","burglary_rolling_max_12","burglary_rolling_min_12","burglary_trend_3_12","burglary_trend_6_12"],"feature_types":["float","float","float","float","int","float","int","float","float","float","float","float","float","float","float","float","float","float","float","float","float","float","float","float"],"gradient_booster":{"model":{"gbtree_model_param":{"num_parallel_tree":"1","num_trees":"52"},"iteration_indptr":[0,1,2,3,4,5,6,7,8,9,10,11,12,13,14,15,16,17,18,19,20,21,22,23,24,25,26,27,28,29,30,31,32,33,34,35,36,37,38,39,40,41,42,43,44,45,46,47,48,49,50,51,52],"tree_info":[0,0,0,0,0,0,0,0,0,0,0,0,0,0,0,0,0,0,0,0,0,0,0,0,0,0,0,0,0,0,0,0,0,0,0,0,0,0,0,0,0,0,0,0,0,0,0,0,0,0,0,0],"trees":[{"base_weights":[8.6288375E-4,-1.0309029E-1,5.932554E-1,-2.332909E-1,3.1240784E-2,4.721617E-1,1.4356618E0,-1.6773432E-1,-3.4108302E-1,2.1860088E-1,-1.0101373E-2,3.5511643E-1,7.3225904E-1,1.1255394E0,2.6611872E0,-2.3395786E-1,-8.1822865E-2,-3.8712528E-1,-2.2980598E-1,1.2405891E-1,3.6647123E-1,-9.898348E-2,8.1232496E-2,2.288054E-1,4.2825937E-1,5.6067497E-1,9.5622444E-1,8.5596776E-1,1.4401844E0,2.1169994E0,4.0660977E0,-3.0502674E-1,-1.9779018E-1,-1.10986985E-1,6.758614E-2,-4.2600358E-1,-3.3575216E-1,-2.4989039E-1,1.850103E-2,2.4229002E-1,5.929631E-2,2.8581786E-1,5.405263E-1,-4.6336934E-2,-1.8492787E-1,2.000722E-2,1.8810615E-1,5.0437146E-1,2.0029987E-1,3.6355036E-1,5.673295E-1,7.77671E-1,3.8282764E-1,1.4621615E0,8.6543196E-1,8.404576E-1,3.8439367E0,1.2775983E0,1.8971858E0,2.289257E0,1.0848285E0,1.3550161E0,4.2722425E0,-3.2030698E-2,-1.3340321E-2,-2.388133E-2,-1.4184954E-2,-1.5119657E-2,-1.1280833E-3,-2.7104406E-4,1.7034454E-2,-4.6096426E-2,-3.6825813E-2,-2.4214713E-2,-3.5328906E-2,-2.7207172E-2,-7.5683E-3,-1.0656623E-2,2.4854114E-2,1.5968142E-2,3.7148282E-2,-1.9483106E-3,1.3092162E-2,2.0725382E-2,4.141005E-2,5.0294247E-2,9.540833E-2,-8.4129255E-3,3.759189E-3,-1.3976144E-2,-2.7764445E-2,5.9287506E-3,-1.4775169E-2,2.5012044E-2,8.813151E-3,9.6193776E-2,4.567097E-2,1.5358612E-2,3.250772E-2,4.7365468E-2,2.7694542E-2,8.6167924E-2,5.1059272E-2,6.810687E-2,1.1083102E-1,3.3868063E-2,7.5618744E-2,1.424729E-1,3.7328255E-1,7.581796E-2,1.1205734E-1,5.2154996E-2,9.419071E-2,1.0799619E0,3.137961E-2,1.3698505E-1,9.5834576E-2,2.0175608E-1,9.912772E-2,2.57208E-1,1.6953385E-1,1.4819776E-1,1.1796846E-2,-1.0042841E-2,1.6528003E-1,3.7375903E-1,5.4388314E-1],"categories":[],"categories_nodes":[],"categories_segments":[],"categories_sizes":[],"default_left":[0,0,0,0,0,0,0,0,0,0,0,0,0,0,0,0,0,0,0,0,0,0,0,0,0,0,0,0,0,0,0,0,0,0,0,0,0,0,0,0,0,0,0,0,0,0,0,0,0,0,0,0,0,0,0,0,0,0,0,0,0,0,0,0,0,0,0,0,0,0,0,0,0,0,0,0,0,0,0,0,0,0,0,0,0,0,0,0,0,0,0,0,0,0,0,0,0,0,0,0,0,0,0,0,0,0,0,0,0,0,0,0,0,0,0,0,0,0,0,0,0,0,0,0,0,0,0],"id":0,"left_children":[1,3,5,7,9,11,13,15,17,19,21,23,25,27,29,31,33,35,37,39,41,43,45,47,49,51,53,55,57,59,61,63,65,67,69,71,73,75,77,79,81,83,85,87,89,91,93,95,97,99,101,103,105,107,109,111,113,115,117,119,121,123,125,-1,-1,-1,-1,-1,-1,-1,-1,-1,-1,-1,-1,-1,-1,-1,-1,-1,-1,-1,-1,-1,-1,-1,-1,-1,-1,-1,-1,-1,-1,-1,-1,-1,-1,-1,-1,-1,-1,-1,-1,-1,-1,-1,-1,-1,-1,-1,-1,-1,-1,-1,-1,-1,-1,-1,-1,-1,-1,-1,-1,-1,-1,-1,-1],"loss_changes":[1.3698218E4,3.3097249E3,3.3867725E3,6.789966E2,7.214604E2,8.836572E2,1.5830059E3,3.3995435E2,1.8609717E2,2.3533496E2,6.1944794E2,1.8491724E2,3.457085E2,2.8138574E2,6.3513135E2,8.667517E1,1.1335605E2,5.119336E1,5.3057373E1,7.863788E1,9.201984E1,1.7496967E2,2.462494E2,5.7602936E1,1.1391162E2,1.9667676E2,1.7820386E2,8.004932E1,1.117041E2,1.0579614E2,1.2498755E2,2.9798096E1,5.1292908E1,8.725729E1,3.0693388E1,2.935962E1,1.8097778E1,3.8010376E1,2.2956564E1,3.873497E1,3.745813E1,4.5156097E1,3.1818604E1,7.6074E1,6.147815E1,1.5768513E2,8.495941E1,1.456488E1,3.876416E1,8.241821E1,6.677942E1,7.264441E1,4.6010925E1,4.5085083E1,8.986377E1,5.7388306E1,2.1760193E2,3.2144165E1,4.1728638E1,8.315405E1,3.400007E1,7.967331E0,1.1501904E2,0E0,0E0,0E0,0E0,0E0,0E0,0E0,0E0,0E0,0E0,0E0,0E0,0E0,0E0,0E0,0E0,0E0,0E0,0E0,0E0,0E0,0E0,0E0,0E0,0E0,0E0,0E0,0E0,0E0,0E0,0E0,0E0,0E0,0E0,0E0,0E0,0E0,0E0,0E0,0E0,0E0,0E0,0E0,0E0,0E0,0E0,0E0,0E0,0E0,0E0,0E0,0E0,0E0,0E0,0E0,0E0,0E0,0E0,0E0,0E0,0E0,0E0,0E0,0E0],"parents":[2147483647,0,0,1,1,2,2,3,3,4,4,5,5,6,6,7,7,8,8,9,9,10,10,11,11,12,12,13,13,14,14,15,15,16,16,17,17,18,18,19,19,20,20,21,21,22,22,23,23,24,24,25,25,26,26,27,27,28,28,29,29,30,30,31,31,32,32,33,33,34,34,35,35,36,36,37,37,38,38,39,39,40,40,41,41,42,42,43,43,44,44,45,45,46,46,47,47,48,48,49,49,50,50,51,51,52,52,53,53,54,54,55,55,56,56,57,57,58,58,59,59,60,60,61,61,62,62],"right_children":[2,4,6,8,10,12,14,16,18,20,22,24,26,28,30,32,34,36,38,40,42,44,46,48,50,52,54,56,58,60,62,64,66,68,70,72,74,76,78,80,82,84,86,88,90,92,94,96,98,100,102,104,106,108,110,112,114,116,118,120,122,124,126,-1,-1,-1,-1,-1,-1,-1,-1,-1,-1,-1,-1,-1,-1,-1,-1,-1,-1,-1,-1,-1,-1,-1,-1,-1,-1,-1,-1,-1,-1,-1,-1,-1,-1,-1,-1,-1,-1,-1,-1,-1,-1,-1,-1,-1,-1,-1,-1,-1,-1,-1,-1,-1,-1,-1,-1,-1,-1,-1,-1,-1,-1,-1,-1],"split_conditions":[2.5E0,1.6E0,3.8333333E0,4.5E0,-1.6666667E-1,4.7E1,1.57E2,7.0710677E-1,2.3E1,2E0,2E0,2.6666667E0,3E0,3.6E1,5.6666665E0,4.6291006E-1,3.8E0,6.6855794E-1,1.2401124E0,-4.1666666E-1,4.8E1,1.6666667E-1,2.6E1,-1.6666667E-1,9E0,1.1904762E-1,-1.6666667E-1,7.9E0,5.3333335E0,2.189E3,1E0,4E0,8E0,2.4E1,9E0,1.781E3,-4.1666666E-1,9E1,5.5E1,9E0,1.7E1,9E0,3E0,2.7E1,4.6E0,4.5E0,2.5E-1,2.9992476E3,9E0,2.5E-1,0E0,4E0,1.74E2,1.1E1,3.5E0,5E0,3E0,9.166667E-1,1.6964742E4,5.833333E-1,3.1E0,8E0,1.1060922E4,-3.2030698E-2,-1.3340321E-2,-2.388133E-2,-1.4184954E-2,-1.5119657E-2,-1.1280833E-3,-2.7104406E-4,1.7034454E-2,-4.6096426E-2,-3.6825813E-2,-2.4214713E-2,-3.5328906E-2,-2.7207172E-2,-7.5683E-3,-1.0656623E-2,2.4854114E-2,1.5968142E-2,3.7148282E-2,-1.9483106E-3,1.3092162E-2,2.0725382E-2,4.141005E-2,5.0294247E-2,9.540833E-2,-8.4129255E-3,3.759189E-3,-1.3976144E-2,-2.7764445E-2,5.9287506E-3,-1.4775169E-2,2.5012044E-2,8.813151E-3,9.6193776E-2,4.567097E-2,1.5358612E-2,3.250772E-2,4.7365468E-2,2.7694542E-2,8.6167924E-2,5.1059272E-2,6.810687E-2,1.1083102E-1,3.3868063E-2,7.5618744E-2,1.424729E-1,3.7328255E-1,7.581796E-2,1.1205734E-1,5.2154996E-2,9.419071E-2,1.0799619E0,3.137961E-2,1.3698505E-1,9.5834576E-2,2.0175608E-1,9.912772E-2,2.57208E-1,1.6953385E-1,1.4819776E-1,1.1796846E-2,-1.0042841E-2,1.6528003E-1,3.7375903E-1,5.4388314E-1],"split_indices":[12,12,12,3,23,4,4,15,4,12,12,10,12,4,12,15,3,15,15,23,4,23,4,23,6,23,23,3,10,0,9,3,6,4,6,0,23,4,4,6,4,6,10,4,3,3,23,2,6,23,23,9,4,9,12,16,6,23,2,23,3,20,2,0,0,0,0,0,0,0,0,0,0,0,0,0,0,0,0,0,0,0,0,0,0,0,0,0,0,0,0,0,0,0,0,0,0,0,0,0,0,0,0,0,0,0,0,0,0,0,0,0,0,0,0,0,0,0,0,0,0,0,0,0,0,0,0],"split_type":[0,0,0,0,0,0,0,0,0,0,0,0,0,0,0,0,0,0,0,0,0,0,0,0,0,0,0,0,0,0,0,0,0,0,0,0,0,0,0,0,0,0,0,0,0,0,0,0,0,0,0,0,0,0,0,0,0,0,0,0,0,0,0,0,0,0,0,0,0,0,0,0,0,0,0,0,0,0,0,0,0,0,0,0,0,0,0,0,0,0,0,0,0,0,0,0,0,0,0,0,0,0,0,0,0,0,0,0,0,0,0,0,0,0,0,0,0,0,0,0,0,0,0,0,0,0,0],"sum_hessian":[2.2244E5,1.89234E5,3.3206E4,9.6094E4,9.314E4,2.9034E4,4.172E3,5.9755E4,3.6339E4,1.6836E4,7.6304E4,2.0025E4,9.009E3,3.331E3,8.41E2,3.3743E4,2.6012E4,2.5702E4,1.0637E4,1.0271E4,6.565E3,3.8671E4,3.7633E4,7.345E3,1.268E4,5.103E3,3.906E3,1.796E3,1.535E3,6.08E2,2.33E2,1.1378E4,2.2365E4,2.1764E4,4.248E3,1.4626E4,1.1076E4,9.841E3,7.96E2,3.634E3,6.637E3,4.488E3,2.077E3,2.3982E4,1.4689E4,2.3927E4,1.3706E4,6.87E2,6.658E3,8.656E3,4.024E3,2.297E3,2.806E3,5.92E2,3.314E3,1.788E3,8E0,1.135E3,4E2,5.2E2,8.8E1,1.7E1,2.16E2,1.0447E4,9.31E2,1.2901E4,9.464E3,1.5509E4,6.255E3,2.523E3,1.725E3,9.106E3,5.52E3,1.75E3,9.326E3,8.729E3,1.112E3,5.16E2,2.8E2,2.218E3,1.416E3,3.161E3,3.476E3,2.785E3,1.703E3,1.906E3,1.71E2,1.6536E4,7.446E3,9.879E3,4.81E3,1.9388E4,4.539E3,8.458E3,5.248E3,6.3E1,6.24E2,4.846E3,1.812E3,3.809E3,4.847E3,6.48E2,3.376E3,1.78E3,5.17E2,2.511E3,2.95E2,5.84E2,8E0,2.336E3,9.78E2,4.33E2,1.355E3,2E0,6E0,8.78E2,2.57E2,3.52E2,4.8E1,3.5E2,1.7E2,6.2E1,2.6E1,3E0,1.4E1,1.51E2,6.5E1],"tree_param":{"num_deleted":"0","num_feature":"24","num_nodes":"127","size_leaf_vector":"1"}},{"base_weights":[-1.060818E-3,-9.499714E-2,5.349438E-1,-1.8058962E-1,6.4452454E-2,4.635349E-1,1.6329315E0,-1.2258187E-1,-2.851283E-1,2.3777896E-1,1.4141621E-2,3.6088464E-1,7.658737E-1,1.220161E0,2.729456E0,-1.8378772E-1,-6.122901E-2,-3.3707294E-1,-1.7521268E-1,1.7306139E-1,3.7903458E-1,-1.0117047E-2,2.3436594E-1,2.9241627E-1,5.705456E-1,5.826739E-1,1.0572021E0,9.038002E-1,1.5453113E0,2.3928552E0,3.9500368E0,-2.030691E-1,-4.1877963E-2,7.2367564E-2,-1.0786566E-1,-3.7438783E-1,-2.7025E-1,-2.1090977E-1,-3.415392E-2,1.109212E-1,2.7885473E-1,2.7481556E-1,5.188659E-1,2.7071334E-2,-1.3403432E-1,1.541929E-1,3.291373E-1,3.7669027E-1,1.902297E-1,4.287925E-1,7.1140814E-1,8.436033E-1,4.7923103E-1,1.142748E0,6.922911E-1,8.6345667E-1,2.1977205E0,3.4974644E0,1.5019532E0,1.7107352E0,2.6645854E0,4.7768183E0,3.2262573E0,-4.9559223E-3,-2.25607E-2,-8.886792E-3,2.1331256E-2,1.9742232E-3,2.015354E-2,-1.3331679E-2,2.6031137E-3,-4.1896936E-2,-3.4091953E-2,-2.9457746E-2,-1.4870651E-2,-2.3797734E-2,-6.412474E-3,-1.5087917E-2,5.622591E-3,8.8176E-3,4.498541E-2,3.1321403E-2,9.510612E-4,8.338058E-2,2.5595441E-2,7.138113E-2,4.3202046E-2,-1.1011489E-3,1.0486007E-2,-2.4772273E-2,-1.0910899E-2,2.162803E-2,6.7427875E-3,2.55051E-2,4.6065E-2,3.0670194E-2,5.16768E-2,1.15309525E-2,3.1213546E-2,3.6228374E-2,5.696363E-2,7.925227E-2,4.376437E-2,6.7462996E-2,1.0824887E-1,3.97793E-2,7.3253E-2,9.495889E-2,1.3017228E-1,6.114126E-2,1.5776417E-1,8.857067E-2,-4.284219E-2,4.0024182E-1,6.4043604E-2,5.3064007E-2,4.1949508E-1,1.7110479E-1,1.2483485E-1,-6.59676E-2,1.8545066E-1,3.754532E-1,2.4405396E-1,1.9183455E-1,5.2423614E-1,6.8805814E-2,3.4230268E-1],"categories":[],"categories_nodes":[],"categories_segments":[],"categories_sizes":[],"default_left":[0,0,0,0,0,0,0,0,0,0,0,0,0,0,0,0,0,0,0,0,0,0,0,0,0,0,0,0,0,0,0,0,0,0,0,0,0,0,0,0,0,0,0,0,0,0,0,0,0,0,0,0,0,0,0,0,0,0,0,0,0,0,0,0,0,0,0,0,0,0,0,0,0,0,0,0,0,0,0,0,0,0,0,0,0,0,0,0,0,0,0,0,0,0,0,0,0,0,0,0,0,0,0,0,0,0,0,0,0,0,0,0,0,0,0,0,0,0,0,0,0,0,0,0,0,0,0],"id":1,"left_children":[1,3,5,7,9,11,13,15,17,19,21,23,25,27,29,31,33,35,37,39,41,43,45,47,49,51,53,55,57,59,61,63,65,67,69,71,73,75,77,79,81,83,85,87,89,91,93,95,97,99,101,103,105,107,109,111,113,115,117,119,121,123,125,-1,-1,-1,-1,-1,-1,-1,-1,-1,-1,-1,-1,-1,-1,-1,-1,-1,-1,-1,-1,-1,-1,-1,-1,-1,-1,-1,-1,-1,-1,-1,-1,-1,-1,-1,-1,-1,-1,-1,-1,-1,-1,-1,-1,-1,-1,-1,-1,-1,-1,-1,-1,-1,-1,-1,-1,-1,-1,-1,-1,-1,-1,-1,-1],"loss_changes":[1.1199217E4,2.5829453E3,2.5998184E3,7.4675903E2,5.764717E2,9.662822E2,9.1321045E2,2.97412E2,2.5086304E2,1.3589014E2,2.7372827E2,3.3361865E2,4.2064355E2,1.5012305E2,2.1774756E2,1.0847974E2,2.4646135E2,7.4312256E1,7.102197E1,6.703064E1,6.794281E1,2.1269432E2,3.8578033E1,1.5089099E2,1.1397009E2,1.3044946E2,9.429468E1,3.720117E1,5.6112305E1,7.625537E1,5.5200806E1,1.2075635E2,5.6906113E1,6.9575226E1,9.9924255E1,2.8425781E1,3.1585571E1,4.4710022E1,3.0074871E1,4.951439E1,3.492337E1,2.803183E1,3.3450256E1,1.0516983E2,3.0163422E1,1.4832024E1,2.257463E1,9.4016846E1,7.2344604E1,2.6537415E1,6.3363037E1,5.477191E1,7.137079E1,7.4488525E1,4.0638397E1,2.1305237E1,5.926612E1,2.8813766E1,3.5566406E1,4.4504578E1,6.653833E1,6.0472656E1,3.0607788E1,0E0,0E0,0E0,0E0,0E0,0E0,0E0,0E0,0E0,0E0,0E0,0E0,0E0,0E0,0E0,0E0,0E0,0E0,0E0,0E0,0E0,0E0,0E0,0E0,0E0,0E0,0E0,0E0,0E0,0E0,0E0,0E0,0E0,0E0,0E0,0E0,0E0,0E0,0E0,0E0,0E0,0E0,0E0,0E0,0E0,0E0,0E0,0E0,0E0,0E0,0E0,0E0,0E0,0E0,0E0,0E0,0E0,0E0,0E0,0E0,0E0,0E0,0E0,0E0],"parents":[2147483647,0,0,1,1,2,2,3,3,4,4,5,5,6,6,7,7,8,8,9,9,10,10,11,11,12,12,13,13,14,14,15,15,16,16,17,17,18,18,19,19,20,20,21,21,22,22,23,23,24,24,25,25,26,26,27,27,28,28,29,29,30,30,31,31,32,32,33,33,34,34,35,35,36,36,37,37,38,38,39,39,40,40,41,41,42,42,43,43,44,44,45,45,46,46,47,47,48,48,49,49,50,50,51,51,52,52,53,53,54,54,55,55,56,56,57,57,58,58,59,59,60,60,61,61,62,62],"right_children":[2,4,6,8,10,12,14,16,18,20,22,24,26,28,30,32,34,36,38,40,42,44,46,48,50,52,54,56,58,60,62,64,66,68,70,72,74,76,78,80,82,84,86,88,90,92,94,96,98,100,102,104,106,108,110,112,114,116,118,120,122,124,126,-1,-1,-1,-1,-1,-1,-1,-1,-1,-1,-1,-1,-1,-1,-1,-1,-1,-1,-1,-1,-1,-1,-1,-1,-1,-1,-1,-1,-1,-1,-1,-1,-1,-1,-1,-1,-1,-1,-1,-1,-1,-1,-1,-1,-1,-1,-1,-1,-1,-1,-1,-1,-1,-1,-1,-1,-1,-1,-1,-1,-1,-1,-1,-1],"split_conditions":[2.4E0,1.8E0,4.3333335E0,4.5E0,-8.3333336E-2,6.1E1,1.57E2,1.5E0,2.2E1,2.1666667E0,7.2E1,3.1666667E0,3.1666667E0,3.6E1,6.5E0,3.9E0,-1.6666667E-1,1.4E0,7E1,9E0,3.3E1,4.5E0,2.1666667E0,2.6666668E-1,3.5E0,0E0,7.5E-1,1.4E1,3.7E1,1.94E2,2.4E0,-4.1666666E-1,1.2E1,1E1,3.8E0,1.673E3,2.0678716E3,2.12E3,1.14E-1,1.31E2,5.9E0,-9.2424244E-1,-4.1666666E-1,9E0,5E0,1.6666667E-1,1.937E3,1.906E3,8E0,1.95E3,8.333333E-1,3E0,1.38E2,3.5E0,2.35E2,1.9327115E4,4E0,3.9E0,3.1E0,1.2110602E0,1.95E2,2E0,2E0,-4.9559223E-3,-2.25607E-2,-8.886792E-3,2.1331256E-2,1.9742232E-3,2.015354E-2,-1.3331679E-2,2.6031137E-3,-4.1896936E-2,-3.4091953E-2,-2.9457746E-2,-1.4870651E-2,-2.3797734E-2,-6.412474E-3,-1.5087917E-2,5.622591E-3,8.8176E-3,4.498541E-2,3.1321403E-2,9.510612E-4,8.338058E-2,2.5595441E-2,7.138113E-2,4.3202046E-2,-1.1011489E-3,1.0486007E-2,-2.4772273E-2,-1.0910899E-2,2.162803E-2,6.7427875E-3,2.55051E-2,4.6065E-2,3.0670194E-2,5.16768E-2,1.15309525E-2,3.1213546E-2,3.6228374E-2,5.696363E-2,7.925227E-2,4.376437E-2,6.7462996E-2,1.0824887E-1,3.97793E-2,7.3253E-2,9.495889E-2,1.3017228E-1,6.114126E-2,1.5776417E-1,8.857067E-2,-4.284219E-2,4.0024182E-1,6.4043604E-2,5.3064007E-2,4.1949508E-1,1.7110479E-1,1.2483485E-1,-6.59676E-2,1.8545066E-1,3.754532E-1,2.4405396E-1,1.9183455E-1,5.2423614E-1,6.8805814E-2,3.4230268E-1],"split_indices":[12,12,12,3,23,4,4,12,4,12,4,12,12,4,12,3,23,12,4,6,4,3,12,23,10,23,23,16,4,4,3,23,6,6,3,0,0,0,5,4,3,23,23,6,4,23,0,0,6,0,23,10,4,12,4,2,6,3,3,13,4,3,17,0,0,0,0,0,0,0,0,0,0,0,0,0,0,0,0,0,0,0,0,0,0,0,0,0,0,0,0,0,0,0,0,0,0,0,0,0,0,0,0,0,0,0,0,0,0,0,0,0,0,0,0,0,0,0,0,0,0,0,0,0,0,0,0],"split_type":[0,0,0,0,0,0,0,0,0,0,0,0,0,0,0,0,0,0,0,0,0,0,0,0,0,0,0,0,0,0,0,0,0,0,0,0,0,0,0,0,0,0,0,0,0,0,0,0,0,0,0,0,0,0,0,0,0,0,0,0,0,0,0,0,0,0,0,0,0,0,0,0,0,0,0,0,0,0,0,0,0,0,0,0,0,0,0,0,0,0,0,0,0,0,0,0,0,0,0,0,0,0,0,0,0,0,0,0,0,0,0,0,0,0,0,0,0,0,0,0,0,0,0,0,0,0,0],"sum_hessian":[2.22424E5,1.89257E5,3.3167E4,1.2315E5,6.6107E4,3.1143E4,2.024E3,7.9203E4,4.3947E4,1.4871E4,5.1236E4,2.3251E4,7.892E3,1.472E3,5.52E2,3.9648E4,3.9555E4,2.9842E4,1.4105E4,1.02E4,4.671E3,4.6153E4,5.083E3,1.7529E4,5.722E3,4.847E3,3.045E3,7.48E2,7.24E2,4.35E2,1.17E2,3.4905E4,4.743E3,1.0235E4,2.932E4,1.9146E4,1.0696E4,1.1256E4,2.849E3,6.427E3,3.773E3,2.678E3,1.993E3,3.55E4,1.0653E4,2.755E3,2.328E3,9.605E3,7.924E3,2.854E3,2.868E3,1.374E3,3.473E3,2.465E3,5.8E2,7.27E2,2.1E1,1.4E1,7.1E2,1.26E2,3.09E2,5.2E1,6.5E1,4.469E3,3.0436E4,4.006E3,7.37E2,7.273E3,2.962E3,2.4637E4,4.683E3,8.205E3,1.0941E4,8.911E3,1.785E3,9.503E3,1.753E3,1.243E3,1.606E3,6.024E3,4.03E2,3.346E3,4.27E2,8.6E1,2.592E3,6.12E2,1.381E3,2.3833E4,1.1667E4,1.914E3,8.739E3,1.605E3,1.15E3,1.491E3,8.37E2,6.407E3,3.198E3,4.909E3,3.015E3,1.941E3,9.13E2,2.211E3,6.57E2,8.07E2,5.67E2,2.63E3,8.43E2,1.116E3,1.349E3,5.33E2,4.7E1,7.15E2,1.2E1,9E0,1.2E1,3E0,1.1E1,3.86E2,3.24E2,7E0,1.19E2,5E1,2.59E2,8E0,4.4E1,5E0,6E1],"tree_param":{"num_deleted":"0","num_feature":"24","num_nodes":"127","size_leaf_vector":"1"}},{"base_weights":[1.159289E-4,-1.0862255E-1,4.3729758E-1,-2.1302226E-1,5.8620395E-3,3.0954948E-1,9.477072E-1,-1.638778E-1,-2.907697E-1,-5.6702636E-2,7.773605E-2,2.3344009E-1,4.2578015E-1,8.378289E-1,1.9334414E0,-2.5552326E-1,-1.3994984E-1,-3.383465E-1,-2.4201727E-1,-2.1290647E-2,-1.4939246E-1,4.4472523E-2,1.4308418E-1,1.285196E-1,2.724475E-1,3.5952E-1,5.541125E-1,7.23036E-1,1.0933801E0,2.8561366E0,1.3474954E0,-2.8167924E-1,-1.7193213E-1,-1.5682296E-1,1.2264402E-2,-3.6502844E-1,-2.8071257E-1,-2.5974175E-1,-1.5285724E-1,-5.306552E-2,6.7460544E-2,-1.8510915E-1,-7.723561E-2,1.3484157E-2,1.32753E-1,1.637654E-1,-9.901161E-3,8.147206E-2,2.1563542E-1,2.3007458E-1,3.588077E-1,3.1335005E-1,4.502914E-1,4.9747875E-1,7.1827227E-1,6.805519E-1,1.106945E0,9.561055E-1,1.3940747E0,2.344757E0,3.880773E0,1.0215688E0,2.1393437E0,-3.3110134E-2,-2.3440916E-2,-2.4223896E-3,-1.9384064E-2,-1.931051E-2,-8.897021E-3,-2.0708996E-3,1.7968884E-2,-4.053257E-2,-3.3884875E-2,-2.7534982E-2,-4.962897E-2,-3.0241415E-2,-2.3222342E-2,-1.6214909E-2,1.1977779E-2,-6.9769262E-3,3.3147167E-3,2.5860406E-3,1.1399101E-2,-3.338396E-2,-1.756039E-2,2.4291111E-2,-8.74694E-3,3.225137E-3,-8.941363E-3,1.1354741E-2,3.4057703E-2,1.2506644E-2,2.3870185E-2,-6.5795756E-3,1.5851337E-2,2.3155201E-2,6.227804E-3,2.5128875E-2,-6.373351E-3,1.9504938E-2,3.1284075E-2,3.9643873E-2,1.4007258E-2,7.2874464E-3,3.3061925E-2,5.0021082E-2,1.8831218E-2,4.2784777E-2,6.3376814E-2,6.8618245E-2,1.6250966E-1,8.8982865E-2,6.037084E-2,1.0517379E-1,2.439671E-1,3.6808297E-1,9.458903E-2,1.1926651E-1,1.770551E-1,1.9093756E-1,2.910377E-1,2.2358957E-1,4.4220296E-1,6.997089E-2,1.4259191E-1,3.634934E-1,1.8443504E-1],"categories":[],"categories_nodes":[],"categories_segments":[],"categories_sizes":[],"default_left":[0,0,0,0,0,0,0,0,0,0,0,0,0,0,0,0,0,0,0,0,0,0,0,0,0,0,0,0,0,0,0,0,0,0,0,0,0,0,0,0,0,0,0,0,0,0,0,0,0,0,0,0,0,0,0,0,0,0,0,0,0,0,0,0,0,0,0,0,0,0,0,0,0,0,0,0,0,0,0,0,0,0,0,0,0,0,0,0,0,0,0,0,0,0,0,0,0,0,0,0,0,0,0,0,0,0,0,0,0,0,0,0,0,0,0,0,0,0,0,0,0,0,0,0,0,0,0],"id":2,"left_children":[1,3,5,7,9,11,13,15,17,19,21,23,25,27,29,31,33,35,37,39,41,43,45,47,49,51,53,55,57,59,61,63,65,67,69,71,73,75,77,79,81,83,85,87,89,91,93,95,97,99,101,103,105,107,109,111,113,115,117,119,121,123,125,-1,-1,-1,-1,-1,-1,-1,-1,-1,-1,-1,-1,-1,-1,-1,-1,-1,-1,-1,-1,-1,-1,-1,-1,-1,-1,-1,-1,-1,-1,-1,-1,-1,-1,-1,-1,-1,-1,-1,-1,-1,-1,-1,-1,-1,-1,-1,-1,-1,-1,-1,-1,-1,-1,-1,-1,-1,-1,-1,-1,-1,-1,-1,-1],"loss_changes":[1.0566232E4,2.1274255E3,2.886412E3,3.556665E2,3.817715E2,3.1315503E2,9.5823096E2,1.2505542E2,8.3546875E1,1.4897855E2,8.587691E1,8.7552246E1,1.1894092E2,2.3316016E2,4.7624805E2,2.5770874E1,1.161828E2,2.7954346E1,2.81073E1,9.2622734E1,3.23219E1,7.162894E1,4.2167236E1,2.376242E1,5.700305E1,3.859546E1,4.397986E1,8.905005E1,1.006228E2,1.7114893E2,1.3847052E2,2.093164E1,9.111305E0,1.0023401E2,2.4929016E1,1.3016113E1,6.543213E0,1.7374756E1,7.507805E0,3.483053E1,1.6758049E1,1.1805328E1,1.3637602E1,3.743155E1,2.7114708E1,3.4015686E1,1.4959007E1,1.0842703E1,2.0275536E1,3.0284729E1,4.2195312E1,2.5432678E1,4.063025E1,3.3408752E1,3.441577E1,7.9227295E1,3.7680237E1,4.3807373E1,5.6426025E1,5.157544E1,9.07168E1,4.94982E1,6.3003784E1,0E0,0E0,0E0,0E0,0E0,0E0,0E0,0E0,0E0,0E0,0E0,0E0,0E0,0E0,0E0,0E0,0E0,0E0,0E0,0E0,0E0,0E0,0E0,0E0,0E0,0E0,0E0,0E0,0E0,0E0,0E0,0E0,0E0,0E0,0E0,0E0,0E0,0E0,0E0,0E0,0E0,0E0,0E0,0E0,0E0,0E0,0E0,0E0,0E0,0E0,0E0,0E0,0E0,0E0,0E0,0E0,0E0,0E0,0E0,0E0,0E0,0E0,0E0,0E0],"parents":[2147483647,0,0,1,1,2,2,3,3,4,4,5,5,6,6,7,7,8,8,9,9,10,10,11,11,12,12,13,13,14,14,15,15,16,16,17,17,18,18,19,19,20,20,21,21,22,22,23,23,24,24,25,25,26,26,27,27,28,28,29,29,30,30,31,31,32,32,33,33,34,34,35,35,36,36,37,37,38,38,39,39,40,40,41,41,42,42,43,43,44,44,45,45,46,46,47,47,48,48,49,49,50,50,51,51,52,52,53,53,54,54,55,55,56,56,57,57,58,58,59,59,60,60,61,61,62,62],"right_children":[2,4,6,8,10,12,14,16,18,20,22,24,26,28,30,32,34,36,38,40,42,44,46,48,50,52,54,56,58,60,62,64,66,68,70,72,74,76,78,80,82,84,86,88,90,92,94,96,98,100,102,104,106,108,110,112,114,116,118,120,122,124,126,-1,-1,-1,-1,-1,-1,-1,-1,-1,-1,-1,-1,-1,-1,-1,-1,-1,-1,-1,-1,-1,-1,-1,-1,-1,-1,-1,-1,-1,-1,-1,-1,-1,-1,-1,-1,-1,-1,-1,-1,-1,-1,-1,-1,-1,-1,-1,-1,-1,-1,-1,-1,-1,-1,-1,-1,-1,-1,-1,-1,-1,-1,-1,-1],"split_conditions":[2.1818182E0,1.6E0,3.0833333E0,4.5E0,1.8888888E0,2.5833333E0,4.75E0,4.9236596E-1,1.4E0,4.5E0,9E0,-5.555556E-1,1.21212125E-1,3.3333334E-1,3.8E0,3.2E0,3.9E0,1.0514731E4,1.4933518E4,1E1,6.666667E-2,1.2498549E4,5.8E0,9E0,9E0,9E0,1.1666666E0,4.090909E0,3.6666667E0,3E0,1.1E1,7E0,2E0,9E0,1.2E1,1.25E0,2.8801158E4,6E0,8.333333E-1,3.8E0,3E0,2.2628813E3,5.477226E-1,4.8E0,9.166667E-1,3.1E0,4E0,1.1381804E0,5.8E0,1.1860031E4,4.7E0,-1.3333334E0,1.4806276E4,9E0,2.91E-1,2.6E0,7.7E0,9.374369E-1,4E0,6E0,2E0,1.54E-1,3E0,-3.3110134E-2,-2.3440916E-2,-2.4223896E-3,-1.9384064E-2,-1.931051E-2,-8.897021E-3,-2.0708996E-3,1.7968884E-2,-4.053257E-2,-3.3884875E-2,-2.7534982E-2,-4.962897E-2,-3.0241415E-2,-2.3222342E-2,-1.6214909E-2,1.1977779E-2,-6.9769262E-3,3.3147167E-3,2.5860406E-3,1.1399101E-2,-3.338396E-2,-1.756039E-2,2.4291111E-2,-8.74694E-3,3.225137E-3,-8.941363E-3,1.1354741E-2,3.4057703E-2,1.2506644E-2,2.3870185E-2,-6.5795756E-3,1.5851337E-2,2.3155201E-2,6.227804E-3,2.5128875E-2,-6.373351E-3,1.9504938E-2,3.1284075E-2,3.9643873E-2,1.4007258E-2,7.2874464E-3,3.3061925E-2,5.0021082E-2,1.8831218E-2,4.2784777E-2,6.3376814E-2,6.8618245E-2,1.6250966E-1,8.8982865E-2,6.037084E-2,1.0517379E-1,2.439671E-1,3.6808297E-1,9.458903E-2,1.1926651E-1,1.770551E-1,1.9093756E-1,2.910377E-1,2.2358957E-1,4.4220296E-1,6.997089E-2,1.4259191E-1,3.634934E-1,1.8443504E-1],"split_indices":[14,14,14,3,14,14,14,15,14,3,6,22,22,22,3,3,3,2,2,6,22,2,3,6,6,6,22,14,14,21,20,6,6,6,6,14,2,6,22,3,16,2,13,3,22,3,16,15,3,2,3,22,2,6,5,3,3,15,17,7,13,5,6,0,0,0,0,0,0,0,0,0,0,0,0,0,0,0,0,0,0,0,0,0,0,0,0,0,0,0,0,0,0,0,0,0,0,0,0,0,0,0,0,0,0,0,0,0,0,0,0,0,0,0,0,0,0,0,0,0,0,0,0,0,0,0,0],"split_type":[0,0,0,0,0,0,0,0,0,0,0,0,0,0,0,0,0,0,0,0,0,0,0,0,0,0,0,0,0,0,0,0,0,0,0,0,0,0,0,0,0,0,0,0,0,0,0,0,0,0,0,0,0,0,0,0,0,0,0,0,0,0,0,0,0,0,0,0,0,0,0,0,0,0,0,0,0,0,0,0,0,0,0,0,0,0,0,0,0,0,0,0,0,0,0,0,0,0,0,0,0,0,0,0,0,0,0,0,0,0,0,0,0,0,0,0,0,0,0,0,0,0,0,0,0,0,0],"sum_hessian":[2.22265E5,1.77994E5,4.4271E4,9.3097E4,8.4897E4,3.541E4,8.861E3,5.7043E4,3.6054E4,4.5388E4,3.9509E4,2.14E4,1.401E4,7.974E3,8.87E2,1.1808E4,4.5235E4,1.8244E4,1.781E4,3.2842E4,1.2546E4,2.6183E4,1.3326E4,5.801E3,1.5599E4,9.242E3,4.768E3,5.505E3,2.469E3,3.43E2,5.44E2,8.992E3,2.816E3,4.0721E4,4.514E3,1.2467E4,5.777E3,1.4855E4,2.955E3,2.4184E4,8.658E3,8.391E3,4.155E3,1.9381E4,6.802E3,1.1739E4,1.587E3,3.768E3,2.033E3,1.0467E4,5.132E3,6.129E3,3.113E3,3.548E3,1.22E3,4.959E3,5.46E2,1.698E3,7.71E2,2.31E2,1.12E2,3.87E2,1.57E2,4.393E3,4.599E3,3.64E2,2.452E3,2.6532E4,1.4189E4,3.772E3,7.42E2,4.904E3,7.563E3,5.639E3,1.38E2,5.82E3,9.035E3,2.858E3,9.7E1,2.0259E4,3.925E3,4.572E3,4.086E3,5.02E2,7.889E3,1.28E2,4.027E3,1.6392E4,2.989E3,6.228E3,5.74E2,7.743E3,3.996E3,1.192E3,3.95E2,4.26E2,3.342E3,1.803E3,2.3E2,7.357E3,3.11E3,4.378E3,7.54E2,4.11E2,5.718E3,2.614E3,4.99E2,2.351E3,1.197E3,1.18E3,4E1,1.329E3,3.63E3,5.26E2,2E1,5E0,1.693E3,5.05E2,2.66E2,1.33E2,9.8E1,2.9E1,8.3E1,2.17E2,1.7E2,2.4E1,1.33E2],"tree_param":{"num_deleted":"0","num_feature":"24","num_nodes":"127","size_leaf_vector":"1"}},{"base_weights":[2.3781038E-5,-9.059119E-2,3.6637765E-1,-1.7161514E-1,4.249056E-3,2.717774E-1,8.84369E-1,-1.2327998E-1,-2.509559E-1,7.2550505E-2,-6.90258E-2,5.0263196E-1,2.3034722E-1,7.641373E-1,1.8745502E0,-1.7009677E-1,-6.258229E-2,-2.9694772E-1,-1.993208E-1,2.2608101E-1,4.932928E-2,-1.2500235E-1,-2.0497928E-3,4.0144205E-1,6.700206E-1,1.6108882E-1,3.6170778E-1,1.2248844E0,7.0441157E-1,1.3563095E0,2.3933315E0,-2.2557013E-1,-1.4194742E-1,-8.305771E-2,4.3333884E-2,-3.2345906E-1,-2.417795E-1,-2.4448787E-1,-1.4896466E-1,4.448866E-1,1.9863524E-1,7.5941924E-3,1.2547083E-1,-9.523455E-2,-1.858761E-1,7.445771E-2,-5.233821E-2,3.1071422E-1,5.298849E-1,5.5774516E-1,9.4697267E-1,2.2324644E-1,8.665137E-2,4.1705683E-1,2.4204853E-1,1.0987772E0,1.839562E0,6.0715616E-1,9.296863E-1,1.4533747E0,6.579712E-2,3.1160345E0,1.7398908E0,-2.4015779E-2,-6.1534117E-3,-1.5467999E-2,-2.138575E-3,-1.05137145E-2,7.1944244E-4,-3.6178448E-3,1.4309424E-2,-3.5020035E-2,-2.7672619E-2,-2.733617E-2,-1.970717E-2,-1.8276474E-2,-2.8835436E-2,6.1437734E-3,-1.6573897E-2,-2.4116652E-2,5.0009426E-2,2.323346E-2,6.0947016E-3,3.2375224E-3,-7.1361363E-3,9.452603E-3,2.0742012E-2,-1.0216817E-2,1.1767511E-2,-1.4823672E-2,-2.3588136E-2,5.8067995E-3,2.4191177E-2,-6.474729E-3,1.90899E-2,2.9229898E-2,8.8536344E-2,1.2470063E-1,4.9994674E-2,4.604033E-2,7.796068E-2,1.5296166E-1,8.011639E-2,1.8358292E-2,3.0107787E-2,7.036436E-3,3.2919E-2,3.6065392E-2,5.6546755E-2,1.6880041E-2,4.0110223E-2,1.5344135E-1,9.527122E-2,2.9213724E-1,1.4825593E-1,2.6343605E-2,6.639353E-2,7.5774245E-2,1.2773001E-1,1.15016036E-1,2.0420468E-1,1.3246022E-1,-5.33942E-2,2.441001E-1,3.8353887E-1,1.1650995E-1,2.0894264E-1],"categories":[],"categories_nodes":[],"categories_segments":[],"categories_sizes":[],"default_left":[0,0,0,0,0,0,0,0,0,0,0,0,0,0,0,0,0,0,0,0,0,0,0,0,0,0,0,0,0,0,0,0,0,0,0,0,0,0,0,0,0,0,0,0,0,0,0,0,0,0,0,0,0,0,0,0,0,0,0,0,0,0,0,0,0,0,0,0,0,0,0,0,0,0,0,0,0,0,0,0,0,0,0,0,0,0,0,0,0,0,0,0,0,0,0,0,0,0,0,0,0,0,0,0,0,0,0,0,0,0,0,0,0,0,0,0,0,0,0,0,0,0,0,0,0,0,0],"id":3,"left_children":[1,3,5,7,9,11,13,15,17,19,21,23,25,27,29,31,33,35,37,39,41,43,45,47,49,51,53,55,57,59,61,63,65,67,69,71,73,75,77,79,81,83,85,87,89,91,93,95,97,99,101,103,105,107,109,111,113,115,117,119,121,123,125,-1,-1,-1,-1,-1,-1,-1,-1,-1,-1,-1,-1,-1,-1,-1,-1,-1,-1,-1,-1,-1,-1,-1,-1,-1,-1,-1,-1,-1,-1,-1,-1,-1,-1,-1,-1,-1,-1,-1,-1,-1,-1,-1,-1,-1,-1,-1,-1,-1,-1,-1,-1,-1,-1,-1,-1,-1,-1,-1,-1,-1,-1,-1,-1],"loss_changes":[7.386399E3,1.3707318E3,2.1617822E3,3.6887988E2,4.1131772E2,3.567202E2,8.096631E2,1.6986725E2,8.642334E1,1.5163673E2,1.4864725E2,9.587134E1,2.877423E2,1.663667E2,1.9489893E2,5.2668335E1,5.6460808E1,2.8089722E1,3.899066E1,3.3469177E1,1.1741463E2,3.9119568E1,6.945791E1,4.1088196E1,6.592169E1,9.582587E1,7.222241E1,5.1929443E1,1.17351074E2,4.637732E1,1.6789185E2,2.716626E1,3.4368195E1,4.347386E1,3.34631E1,1.6155396E1,8.778015E0,2.4434631E1,2.8654434E1,2.3679085E1,2.303276E1,4.670244E1,3.3155106E1,2.142775E1,1.33133545E1,1.963675E1,3.2891254E1,2.1720627E1,3.0807556E1,3.253241E1,5.1021667E1,3.4791626E1,3.7219597E1,6.228418E1,4.019603E1,3.5444275E1,4.0855408E1,7.324463E1,9.591931E1,5.923169E1,2.1091034E1,7.464465E1,3.6743042E1,0E0,0E0,0E0,0E0,0E0,0E0,0E0,0E0,0E0,0E0,0E0,0E0,0E0,0E0,0E0,0E0,0E0,0E0,0E0,0E0,0E0,0E0,0E0,0E0,0E0,0E0,0E0,0E0,0E0,0E0,0E0,0E0,0E0,0E0,0E0,0E0,0E0,0E0,0E0,0E0,0E0,0E0,0E0,0E0,0E0,0E0,0E0,0E0,0E0,0E0,0E0,0E0,0E0,0E0,0E0,0E0,0E0,0E0,0E0,0E0,0E0,0E0,0E0,0E0],"parents":[2147483647,0,0,1,1,2,2,3,3,4,4,5,5,6,6,7,7,8,8,9,9,10,10,11,11,12,12,13,13,14,14,15,15,16,16,17,17,18,18,19,19,20,20,21,21,22,22,23,23,24,24,25,25,26,26,27,27,28,28,29,29,30,30,31,31,32,32,33,33,34,34,35,35,36,36,37,37,38,38,39,39,40,40,41,41,42,42,43,43,44,44,45,45,46,46,47,47,48,48,49,49,50,50,51,51,52,52,53,53,54,54,55,55,56,56,57,57,58,58,59,59,60,60,61,61,62,62],"right_children":[2,4,6,8,10,12,14,16,18,20,22,24,26,28,30,32,34,36,38,40,42,44,46,48,50,52,54,56,58,60,62,64,66,68,70,72,74,76,78,80,82,84,86,88,90,92,94,96,98,100,102,104,106,108,110,112,114,116,118,120,122,124,126,-1,-1,-1,-1,-1,-1,-1,-1,-1,-1,-1,-1,-1,-1,-1,-1,-1,-1,-1,-1,-1,-1,-1,-1,-1,-1,-1,-1,-1,-1,-1,-1,-1,-1,-1,-1,-1,-1,-1,-1,-1,-1,-1,-1,-1,-1,-1,-1,-1,-1,-1,-1,-1,-1,-1,-1,-1,-1,-1,-1,-1,-1,-1,-1],"split_conditions":[2.2E0,1.6E0,3.4E0,4.5E0,8.3333336E-2,-8.3333336E-2,5.1666665E0,7.0710677E-1,6.6855794E-1,-4.1666666E-1,2E0,3E0,2.75E0,0E0,3E0,4.6291006E-1,3.8E0,1.0514731E4,1.779E3,-9.2424244E-1,2E0,4E0,2.5E-1,2.6E0,2.081E3,2.6666668E-1,5.833333E-1,5E-1,3E0,2.278E3,7.5E-1,4E0,2.062E3,3E0,1.68E3,1.781E3,1.789E3,1.6658524E-1,-6.060606E-1,1.04515314E-1,4.6E0,4.5E0,1.941E3,3.9E0,2.5E-1,4E0,2.344E3,1E1,1.359E3,2.75E0,1.5100737E-1,1.902E3,3.5E0,3.1666667E0,1.2005495E4,7.4E-2,1.594E3,3E0,4.1666665E0,1E0,5.2E0,6.1666665E0,5.6E0,-2.4015779E-2,-6.1534117E-3,-1.5467999E-2,-2.138575E-3,-1.05137145E-2,7.1944244E-4,-3.6178448E-3,1.4309424E-2,-3.5020035E-2,-2.7672619E-2,-2.733617E-2,-1.970717E-2,-1.8276474E-2,-2.8835436E-2,6.1437734E-3,-1.6573897E-2,-2.4116652E-2,5.0009426E-2,2.323346E-2,6.0947016E-3,3.2375224E-3,-7.1361363E-3,9.452603E-3,2.0742012E-2,-1.0216817E-2,1.1767511E-2,-1.4823672E-2,-2.3588136E-2,5.8067995E-3,2.4191177E-2,-6.474729E-3,1.90899E-2,2.9229898E-2,8.8536344E-2,1.2470063E-1,4.9994674E-2,4.604033E-2,7.796068E-2,1.5296166E-1,8.011639E-2,1.8358292E-2,3.0107787E-2,7.036436E-3,3.2919E-2,3.6065392E-2,5.6546755E-2,1.6880041E-2,4.0110223E-2,1.5344135E-1,9.527122E-2,2.9213724E-1,1.4825593E-1,2.6343605E-2,6.639353E-2,7.5774245E-2,1.2773001E-1,1.15016036E-1,2.0420468E-1,1.3246022E-1,-5.33942E-2,2.441001E-1,3.8353887E-1,1.1650995E-1,2.0894264E-1],"split_indices":[12,12,12,3,23,23,12,15,15,23,12,9,12,23,9,15,3,2,0,23,12,3,23,12,0,23,23,22,9,0,23,3,0,9,0,0,0,1,23,1,3,3,0,3,23,9,0,20,0,12,1,0,10,12,2,5,0,10,12,9,12,12,12,0,0,0,0,0,0,0,0,0,0,0,0,0,0,0,0,0,0,0,0,0,0,0,0,0,0,0,0,0,0,0,0,0,0,0,0,0,0,0,0,0,0,0,0,0,0,0,0,0,0,0,0,0,0,0,0,0,0,0,0,0,0,0,0],"split_type":[0,0,0,0,0,0,0,0,0,0,0,0,0,0,0,0,0,0,0,0,0,0,0,0,0,0,0,0,0,0,0,0,0,0,0,0,0,0,0,0,0,0,0,0,0,0,0,0,0,0,0,0,0,0,0,0,0,0,0,0,0,0,0,0,0,0,0,0,0,0,0,0,0,0,0,0,0,0,0,0,0,0,0,0,0,0,0,0,0,0,0,0,0,0,0,0,0,0,0,0,0,0,0,0,0,0,0,0,0,0,0,0,0,0,0,0,0,0,0,0,0,0,0,0,0,0,0],"sum_hessian":[2.22499E5,1.78379E5,4.412E4,9.6196E4,8.2183E4,3.7308E4,6.812E3,5.978E4,3.6416E4,4.2535E4,3.9648E4,5.675E3,3.1633E4,6.076E3,7.36E2,3.3748E4,2.6032E4,1.9258E4,1.7158E4,5.587E3,3.6948E4,2.1597E4,1.8051E4,3.539E3,2.136E3,2.0714E4,1.0919E4,6.95E2,5.381E3,3.7E2,3.66E2,1.1358E4,2.239E4,2.1815E4,4.217E3,1.3004E4,6.254E3,9.043E3,8.115E3,6.21E2,4.966E3,2.3867E4,1.3081E4,1.4506E4,7.091E3,7.159E3,1.0892E4,2.076E3,1.463E3,1.522E3,6.14E2,1.1287E4,9.427E3,7.464E3,3.455E3,5.79E2,1.16E2,3.761E3,1.62E3,3.44E2,2.6E1,1.72E2,1.94E2,1.043E4,9.28E2,2.0251E4,2.139E3,1.7527E4,4.288E3,2.347E3,1.87E3,8.267E3,4.737E3,3.662E3,2.592E3,3.759E3,5.284E3,5.99E2,7.516E3,4.6E1,5.75E2,3.989E3,9.77E2,1.8166E4,5.701E3,9.497E3,3.584E3,1.4049E4,4.57E2,4.048E3,3.043E3,6.522E3,6.37E2,1.0364E4,5.28E2,2.013E3,6.3E1,5.7E1,1.406E3,1.06E3,4.62E2,1.21E2,4.93E2,7.479E3,3.808E3,8.835E3,5.92E2,5.411E3,2.053E3,2.367E3,1.088E3,1.43E2,4.36E2,2.7E1,8.9E1,5.34E2,3.227E3,1.086E3,5.34E2,2.29E2,1.15E2,8E0,1.8E1,9.1E1,8.1E1,7.5E1,1.19E2],"tree_param":{"num_deleted":"0","num_feature":"24","num_nodes":"127","size_leaf_vector":"1"}},{"base_weights":[7.117838E-4,-8.7895855E-2,3.559644E-1,-1.7340435E-1,6.020775E-3,2.6658896E-1,8.3729327E-1,-1.3466494E-1,-2.3506288E-1,-3.484903E-2,8.7941505E-2,2.1139066E-1,4.456209E-1,5.1083565E-1,1.1544188E0,-1.4865595E-1,-1.974671E-2,-2.9561517E-1,-1.9044422E-1,-6.422554E-3,-1.3233557E-1,9.219548E-3,1.2799127E-1,1.378344E-1,2.7875945E-1,3.6882234E-1,6.538353E-1,4.1621906E-1,7.4199784E-1,1.0138084E0,1.9262925E0,-1.9988875E-1,-1.1298779E-1,-1.06112435E-1,8.082921E-2,-3.0763847E-1,-2.0244093E-1,-2.188314E-1,-1.20333284E-1,-4.948528E-2,7.6409414E-2,-1.6613877E-1,-7.5210156E-3,4.07355E-2,-5.421498E-2,1.07198454E-1,3.1116962E-1,9.430628E-2,2.2307815E-1,2.5490272E-1,5.1073676E-1,3.278104E-1,5.986665E-1,7.636304E-1,5.305162E-1,3.3566585E-1,5.132368E-1,7.1267647E-1,6.387512E0,6.602138E-1,1.1333902E0,1.0711144E0,2.2546535E0,-2.4228098E-2,-1.5968744E-2,-1.4620795E-2,-5.077503E-3,-2.2542754E-2,-6.9416054E-3,5.7151183E-3,3.9258048E-2,-3.463076E-2,-2.7658133E-2,-9.4607165E-3,-2.373842E-2,-2.8465603E-2,-1.983763E-2,-1.3111628E-2,2.3240788E-2,-7.2663063E-3,5.5849375E-3,3.9340695E-3,1.8173998E-2,-2.1153463E-2,-1.13170445E-2,-1.0134348E-2,5.6717736E-3,-6.422259E-4,1.0684445E-2,-5.885043E-3,1.0703077E-1,1.3415462E-2,-5.980522E-4,3.0662611E-2,3.0865258E-1,3.6160306E-3,1.5617438E-2,2.6399577E-2,-2.3388376E-3,2.0651842E-2,3.548516E-2,4.2826604E-2,8.525171E-2,3.8140863E-2,1.9081376E-2,5.1245462E-2,8.555479E-2,7.441358E-2,2.4343596E-1,4.960494E-2,1.0823073E-1,4.575814E-2,2.4502551E-2,4.3885734E-2,8.671657E-2,6.497582E-2,1.333241E-1,9.615922E-1,1.0299318E-1,1.3489334E-1,5.7314146E-2,1.0597026E-1,1.5145116E-1,1.6212134E-1,7.2398975E-2,1.8667608E-1,3.225046E-1],"categories":[],"categories_nodes":[],"categories_segments":[],"categories_sizes":[],"default_left":[0,0,0,0,0,0,0,0,0,0,0,0,0,0,0,0,0,0,0,0,0,0,0,0,0,0,0,0,0,0,0,0,0,0,0,0,0,0,0,0,0,0,0,0,0,0,0,0,0,0,0,0,0,0,0,0,0,0,0,0,0,0,0,0,0,0,0,0,0,0,0,0,0,0,0,0,0,0,0,0,0,0,0,0,0,0,0,0,0,0,0,0,0,0,0,0,0,0,0,0,0,0,0,0,0,0,0,0,0,0,0,0,0,0,0,0,0,0,0,0,0,0,0,0,0,0,0],"id":4,"left_children":[1,3,5,7,9,11,13,15,17,19,21,23,25,27,29,31,33,35,37,39,41,43,45,47,49,51,53,55,57,59,61,63,65,67,69,71,73,75,77,79,81,83,85,87,89,91,93,95,97,99,101,103,105,107,109,111,113,115,117,119,121,123,125,-1,-1,-1,-1,-1,-1,-1,-1,-1,-1,-1,-1,-1,-1,-1,-1,-1,-1,-1,-1,-1,-1,-1,-1,-1,-1,-1,-1,-1,-1,-1,-1,-1,-1,-1,-1,-1,-1,-1,-1,-1,-1,-1,-1,-1,-1,-1,-1,-1,-1,-1,-1,-1,-1,-1,-1,-1,-1,-1,-1,-1,-1,-1,-1],"loss_changes":[6.9851777E3,1.4263042E3,1.9054746E3,2.2202588E2,2.8339493E2,3.6913672E2,7.17584E2,9.179724E1,9.685596E1,1.5649152E2,8.882257E1,1.4148767E2,1.4053992E2,7.449274E1,3.7986865E2,9.298926E1,5.3846336E1,1.6983643E1,4.1082336E1,1.5596242E2,5.3788437E1,1.8996607E1,7.108826E1,5.0645844E1,8.236279E1,6.045288E1,3.1697754E1,1.8810547E1,1.5965796E2,1.25171875E2,1.4950146E2,3.55625E1,6.201474E1,1.4586422E1,2.1118624E1,1.6087036E1,6.541504E0,1.973767E1,2.2680916E1,7.0238914E1,5.8388092E1,2.409845E1,1.6387238E1,1.9790892E1,1.6503742E1,5.1166977E1,2.3050232E1,3.2518265E1,4.6547607E1,6.5299255E1,3.8786438E1,4.0033447E1,2.1109833E1,3.896649E1,2.0763824E1,1.4585007E1,2.8576996E1,3.7710022E1,7.657858E1,4.4503082E1,6.085376E1,2.7851105E1,1.4077881E2,0E0,0E0,0E0,0E0,0E0,0E0,0E0,0E0,0E0,0E0,0E0,0E0,0E0,0E0,0E0,0E0,0E0,0E0,0E0,0E0,0E0,0E0,0E0,0E0,0E0,0E0,0E0,0E0,0E0,0E0,0E0,0E0,0E0,0E0,0E0,0E0,0E0,0E0,0E0,0E0,0E0,0E0,0E0,0E0,0E0,0E0,0E0,0E0,0E0,0E0,0E0,0E0,0E0,0E0,0E0,0E0,0E0,0E0,0E0,0E0,0E0,0E0,0E0,0E0],"parents":[2147483647,0,0,1,1,2,2,3,3,4,4,5,5,6,6,7,7,8,8,9,9,10,10,11,11,12,12,13,13,14,14,15,15,16,16,17,17,18,18,19,19,20,20,21,21,22,22,23,23,24,24,25,25,26,26,27,27,28,28,29,29,30,30,31,31,32,32,33,33,34,34,35,35,36,36,37,37,38,38,39,39,40,40,41,41,42,42,43,43,44,44,45,45,46,46,47,47,48,48,49,49,50,50,51,51,52,52,53,53,54,54,55,55,56,56,57,57,58,58,59,59,60,60,61,61,62,62],"right_children":[2,4,6,8,10,12,14,16,18,20,22,24,26,28,30,32,34,36,38,40,42,44,46,48,50,52,54,56,58,60,62,64,66,68,70,72,74,76,78,80,82,84,86,88,90,92,94,96,98,100,102,104,106,108,110,112,114,116,118,120,122,124,126,-1,-1,-1,-1,-1,-1,-1,-1,-1,-1,-1,-1,-1,-1,-1,-1,-1,-1,-1,-1,-1,-1,-1,-1,-1,-1,-1,-1,-1,-1,-1,-1,-1,-1,-1,-1,-1,-1,-1,-1,-1,-1,-1,-1,-1,-1,-1,-1,-1,-1,-1,-1,-1,-1,-1,-1,-1,-1,-1,-1,-1,-1,-1,-1],"split_conditions":[2.1818182E0,1.6E0,3.25E0,4.5E0,2.7E1,6E1,5E1,3.9E0,9E0,4.5E0,1.8333334E0,2.4545455E0,2.8333333E0,4.3333335E0,4.75E0,1.4166666E0,1.658E3,2.062E3,1.5E0,9E0,2.056E3,4.5E0,1.3E2,9E0,4E0,1.79E2,3.1E0,1.839E3,7.9E0,3E0,2.1373305E0,7E0,9E0,4.4095856E-1,7.1E1,1.3333334E0,6.8938447E3,7.5E-2,1.16E2,3.8E0,3E0,3E0,1.8E0,8E0,2E0,4.9E0,4.88E2,1.6E1,4.7E0,9E0,2.074E3,4.5E0,2.6666667E0,4.16E2,4.5E0,1.63E3,4E0,2.62E-1,3E0,5.4E-2,4E0,3E0,3E0,-2.4228098E-2,-1.5968744E-2,-1.4620795E-2,-5.077503E-3,-2.2542754E-2,-6.9416054E-3,5.7151183E-3,3.9258048E-2,-3.463076E-2,-2.7658133E-2,-9.4607165E-3,-2.373842E-2,-2.8465603E-2,-1.983763E-2,-1.3111628E-2,2.3240788E-2,-7.2663063E-3,5.5849375E-3,3.9340695E-3,1.8173998E-2,-2.1153463E-2,-1.13170445E-2,-1.0134348E-2,5.6717736E-3,-6.422259E-4,1.0684445E-2,-5.885043E-3,1.0703077E-1,1.3415462E-2,-5.980522E-4,3.0662611E-2,3.0865258E-1,3.6160306E-3,1.5617438E-2,2.6399577E-2,-2.3388376E-3,2.0651842E-2,3.548516E-2,4.2826604E-2,8.525171E-2,3.8140863E-2,1.9081376E-2,5.1245462E-2,8.555479E-2,7.441358E-2,2.4343596E-1,4.960494E-2,1.0823073E-1,4.575814E-2,2.4502551E-2,4.3885734E-2,8.671657E-2,6.497582E-2,1.333241E-1,9.615922E-1,1.0299318E-1,1.3489334E-1,5.7314146E-2,1.0597026E-1,1.5145116E-1,1.6212134E-1,7.2398975E-2,1.8667608E-1,3.225046E-1],"split_indices":[14,14,14,3,4,4,4,3,4,3,14,14,14,10,14,14,0,0,10,6,0,3,4,6,10,4,3,0,3,10,15,6,6,15,4,10,2,5,4,3,3,16,14,6,19,3,4,4,3,6,0,3,14,4,10,0,10,5,6,5,17,3,21,0,0,0,0,0,0,0,0,0,0,0,0,0,0,0,0,0,0,0,0,0,0,0,0,0,0,0,0,0,0,0,0,0,0,0,0,0,0,0,0,0,0,0,0,0,0,0,0,0,0,0,0,0,0,0,0,0,0,0,0,0,0,0,0],"split_type":[0,0,0,0,0,0,0,0,0,0,0,0,0,0,0,0,0,0,0,0,0,0,0,0,0,0,0,0,0,0,0,0,0,0,0,0,0,0,0,0,0,0,0,0,0,0,0,0,0,0,0,0,0,0,0,0,0,0,0,0,0,0,0,0,0,0,0,0,0,0,0,0,0,0,0,0,0,0,0,0,0,0,0,0,0,0,0,0,0,0,0,0,0,0,0,0,0,0,0,0,0,0,0,0,0,0,0,0,0,0,0,0,0,0,0,0,0,0,0,0,0,0,0,0,0,0,0],"sum_hessian":[2.21904E5,1.77606E5,4.4298E4,9.2964E4,8.4642E4,3.7362E4,6.936E3,5.7095E4,3.5869E4,5.647E4,2.8172E4,2.8559E4,8.803E3,3.419E3,3.517E3,5.0898E4,6.197E3,1.5215E4,2.0654E4,4.3722E4,1.2748E4,9.5E3,1.8672E4,1.3654E4,1.4905E4,6.433E3,2.37E3,2.428E3,9.91E2,2.977E3,5.4E2,2.0889E4,3.0009E4,3.334E3,2.863E3,1.3474E4,1.741E3,1.47E4,5.954E3,2.8767E4,1.4955E4,1.0031E4,2.717E3,6.347E3,3.153E3,1.677E4,1.902E3,9.04E3,4.614E3,1.3517E4,1.388E3,5.461E3,9.72E2,1.251E3,1.119E3,1.329E3,1.099E3,9.87E2,4E0,7.54E2,2.223E3,1.51E2,3.89E2,1.0165E4,1.0724E4,1.9562E4,1.0447E4,7.83E2,2.551E3,2.662E3,2.01E2,5.997E3,7.477E3,4.27E2,1.314E3,3.482E3,1.1218E4,5.778E3,1.76E2,2.3579E4,5.188E3,1.1063E4,3.892E3,5.4E3,4.631E3,1.104E3,1.613E3,3.705E3,2.642E3,3.141E3,1.2E1,1.3544E4,3.226E3,1.9E3,2E0,4.661E3,4.379E3,3.957E3,6.57E2,9.11E3,4.407E3,1.12E3,2.68E2,3.924E3,1.537E3,7.3E2,2.42E2,1.238E3,1.3E1,1.055E3,6.4E1,5.65E2,7.64E2,9.1E2,1.89E2,8.98E2,8.9E1,2E0,2E0,8.3E1,6.71E2,1.866E3,3.57E2,5.7E1,9.4E1,2.8E2,1.09E2],"tree_param":{"num_deleted":"0","num_feature":"24","num_nodes":"127","size_leaf_vector":"1"}},{"base_weights":[-2.9887492E-4,-8.0391176E-2,3.2055897E-1,-1.4308083E-1,2.2070836E-2,2.3159812E-1,7.3476994E-1,-1.7824195E-1,-8.395511E-2,-2.1464234E-2,1.002212E-1,1.8310429E-1,3.9264572E-1,5.6509763E-1,1.2218391E0,-1.4098768E-1,-2.4493392E-1,-1.2846611E-1,-4.126146E-2,2.7613565E-3,-1.08677685E-1,7.7073805E-2,2.1778475E-1,6.426623E-2,2.2014253E-1,3.1570876E-1,5.384072E-1,4.568314E-1,7.937113E-1,1.1053579E0,2.846975E0,-1.5697019E-1,-4.7738384E-2,-2.8477755E-1,-2.1741752E-1,3.8912922E-2,-1.3739865E-1,-6.4571793E-3,-1.03302814E-1,-3.3482958E-2,5.312061E-2,-1.3866566E-1,-8.63104E-3,9.932682E-2,-1.7323682E-2,9.4954275E-2,2.7689844E-1,9.289002E-2,-7.7913366E-2,1.6911702E-1,2.8547737E-1,2.749712E-1,5.1405066E-1,5.093908E-1,8.2268655E-1,3.2821018E-1,5.68862E-1,6.579362E-1,1.0406812E0,9.177821E-1,1.5319083E0,3.2417045E0,1.6714215E0,-2.019992E-2,-1.3175334E-2,-9.940171E-3,2.7664353E-3,-2.948688E-2,-1.671732E-2,-2.6332766E-2,-1.9465541E-2,-1.8400569E-2,1.00647025E-2,-2.0816376E-2,-1.1865418E-2,-2.4420468E-3,7.0034857E-3,-1.2326686E-2,2.8250874E-3,-1.3409506E-2,-2.043756E-3,2.8575312E-3,1.58419E-2,-1.7133098E-2,-7.0868963E-3,-1.390829E-3,9.441919E-2,7.336502E-3,1.7212367E-2,-3.397755E-3,3.226965E-2,8.091482E-3,1.586923E-1,2.7388146E-2,2.8807577E-1,1.361145E-2,6.8789045E-4,-1.4397721E-2,4.3707555E-3,8.7457625E-3,2.0135604E-2,1.699961E-2,3.3978425E-2,3.4421127E-2,2.0936387E-2,4.155101E-2,7.5813316E-2,5.634283E-2,3.5106998E-2,7.138462E-2,1.6352727E-1,-7.205214E-3,3.504755E-2,4.492772E-2,8.055391E-2,7.631338E-2,2.383297E-2,1.7914863E-1,8.9593075E-2,7.968701E-2,1.2632383E-1,1.1430249E-1,1.773654E-1,3.7079585E-1,1.6946241E-1,-1.7864887E-1,2.039913E-1],"categories":[],"categories_nodes":[],"categories_segments":[],"categories_sizes":[],"default_left":[0,0,0,0,0,0,0,0,0,0,0,0,0,0,0,0,0,0,0,0,0,0,0,0,0,0,0,0,0,0,0,0,0,0,0,0,0,0,0,0,0,0,0,0,0,0,0,0,0,0,0,0,0,0,0,0,0,0,0,0,0,0,0,0,0,0,0,0,0,0,0,0,0,0,0,0,0,0,0,0,0,0,0,0,0,0,0,0,0,0,0,0,0,0,0,0,0,0,0,0,0,0,0,0,0,0,0,0,0,0,0,0,0,0,0,0,0,0,0,0,0,0,0,0,0,0,0],"id":5,"left_children":[1,3,5,7,9,11,13,15,17,19,21,23,25,27,29,31,33,35,37,39,41,43,45,47,49,51,53,55,57,59,61,63,65,67,69,71,73,75,77,79,81,83,85,87,89,91,93,95,97,99,101,103,105,107,109,111,113,115,117,119,121,123,125,-1,-1,-1,-1,-1,-1,-1,-1,-1,-1,-1,-1,-1,-1,-1,-1,-1,-1,-1,-1,-1,-1,-1,-1,-1,-1,-1,-1,-1,-1,-1,-1,-1,-1,-1,-1,-1,-1,-1,-1,-1,-1,-1,-1,-1,-1,-1,-1,-1,-1,-1,-1,-1,-1,-1,-1,-1,-1,-1,-1,-1,-1,-1,-1],"loss_changes":[5.7145435E3,1.1430372E3,1.6366421E3,2.2950488E2,2.2982289E2,2.8551758E2,6.4829834E2,1.7197412E2,7.8237305E1,9.165978E1,6.574861E1,1.23700195E2,9.4726685E1,1.4383752E2,3.8074878E2,6.619574E1,2.713977E1,3.0142426E1,4.5381435E1,6.1974037E1,2.8293655E1,4.2419693E1,2.8836044E1,2.7192955E1,7.138721E1,4.462976E1,2.3683777E1,5.681732E1,6.205432E1,1.5013379E2,5.722534E1,4.3032288E1,2.5327759E1,1.1975098E1,1.528949E1,1.4082957E1,2.5358337E1,1.8503271E1,1.9840256E1,2.5911753E1,3.6722355E1,1.6057007E1,1.0954678E1,3.0870834E1,2.1829157E1,2.6955324E1,2.028798E1,2.0673664E1,9.005207E0,3.166333E1,5.8862366E1,2.0819641E1,2.2366043E1,2.2507874E1,2.2623627E1,1.6458923E1,5.944232E1,5.322943E1,7.034076E1,5.404602E1,5.221692E1,6.584973E1,4.951586E1,0E0,0E0,0E0,0E0,0E0,0E0,0E0,0E0,0E0,0E0,0E0,0E0,0E0,0E0,0E0,0E0,0E0,0E0,0E0,0E0,0E0,0E0,0E0,0E0,0E0,0E0,0E0,0E0,0E0,0E0,0E0,0E0,0E0,0E0,0E0,0E0,0E0,0E0,0E0,0E0,0E0,0E0,0E0,0E0,0E0,0E0,0E0,0E0,0E0,0E0,0E0,0E0,0E0,0E0,0E0,0E0,0E0,0E0,0E0,0E0,0E0,0E0,0E0,0E0],"parents":[2147483647,0,0,1,1,2,2,3,3,4,4,5,5,6,6,7,7,8,8,9,9,10,10,11,11,12,12,13,13,14,14,15,15,16,16,17,17,18,18,19,19,20,20,21,21,22,22,23,23,24,24,25,25,26,26,27,27,28,28,29,29,30,30,31,31,32,32,33,33,34,34,35,35,36,36,37,37,38,38,39,39,40,40,41,41,42,42,43,43,44,44,45,45,46,46,47,47,48,48,49,49,50,50,51,51,52,52,53,53,54,54,55,55,56,56,57,57,58,58,59,59,60,60,61,61,62,62],"right_children":[2,4,6,8,10,12,14,16,18,20,22,24,26,28,30,32,34,36,38,40,42,44,46,48,50,52,54,56,58,60,62,64,66,68,70,72,74,76,78,80,82,84,86,88,90,92,94,96,98,100,102,104,106,108,110,112,114,116,118,120,122,124,126,-1,-1,-1,-1,-1,-1,-1,-1,-1,-1,-1,-1,-1,-1,-1,-1,-1,-1,-1,-1,-1,-1,-1,-1,-1,-1,-1,-1,-1,-1,-1,-1,-1,-1,-1,-1,-1,-1,-1,-1,-1,-1,-1,-1,-1,-1,-1,-1,-1,-1,-1,-1,-1,-1,-1,-1,-1,-1,-1,-1,-1,-1,-1,-1],"split_conditions":[2.1818182E0,1.75E0,3.1666667E0,1.7E1,2.6E1,6E1,1.1E2,4.5E0,1.5E0,4.5E0,1E2,2E0,3E0,4.9E1,6.5E0,3.8E0,4.472136E-1,1E0,4.5E0,2E0,2.045E3,4.9E0,1.9166666E0,4.2E0,1.818E3,2.8333333E0,2.18E2,3.5E0,1.904762E-1,4.090909E0,3.1E0,1.4166666E0,1.673E3,2.111E3,4E0,1.5E3,1.2E0,6.4E1,7.5E1,1.484E3,1.986E3,1.1496296E4,3E0,2.9166666E-1,2.638E3,2E0,4.88E2,1.7511901E0,2.006E3,7E0,2.4166667E0,3E0,2.081E3,4.5E0,1.2573813E0,1.1067642E-1,1.909E3,8.5E1,2.0014845E3,1.17858125E4,1.94E2,8.166667E0,3.2E0,-2.019992E-2,-1.3175334E-2,-9.940171E-3,2.7664353E-3,-2.948688E-2,-1.671732E-2,-2.6332766E-2,-1.9465541E-2,-1.8400569E-2,1.00647025E-2,-2.0816376E-2,-1.1865418E-2,-2.4420468E-3,7.0034857E-3,-1.2326686E-2,2.8250874E-3,-1.3409506E-2,-2.043756E-3,2.8575312E-3,1.58419E-2,-1.7133098E-2,-7.0868963E-3,-1.390829E-3,9.441919E-2,7.336502E-3,1.7212367E-2,-3.397755E-3,3.226965E-2,8.091482E-3,1.586923E-1,2.7388146E-2,2.8807577E-1,1.361145E-2,6.8789045E-4,-1.4397721E-2,4.3707555E-3,8.7457625E-3,2.0135604E-2,1.699961E-2,3.3978425E-2,3.4421127E-2,2.0936387E-2,4.155101E-2,7.5813316E-2,5.634283E-2,3.5106998E-2,7.138462E-2,1.6352727E-1,-7.205214E-3,3.504755E-2,4.492772E-2,8.055391E-2,7.631338E-2,2.383297E-2,1.7914863E-1,8.9593075E-2,7.968701E-2,1.2632383E-1,1.1430249E-1,1.773654E-1,3.7079585E-1,1.6946241E-1,-1.7864887E-1,2.039913E-1],"split_indices":[14,14,14,4,4,4,4,3,14,3,4,10,10,4,12,3,13,8,3,14,0,3,14,3,0,14,4,10,22,14,3,14,0,0,4,0,14,4,4,0,0,2,17,22,0,19,4,15,0,4,14,3,0,3,1,1,0,4,2,2,4,12,3,0,0,0,0,0,0,0,0,0,0,0,0,0,0,0,0,0,0,0,0,0,0,0,0,0,0,0,0,0,0,0,0,0,0,0,0,0,0,0,0,0,0,0,0,0,0,0,0,0,0,0,0,0,0,0,0,0,0,0,0,0,0,0,0],"split_type":[0,0,0,0,0,0,0,0,0,0,0,0,0,0,0,0,0,0,0,0,0,0,0,0,0,0,0,0,0,0,0,0,0,0,0,0,0,0,0,0,0,0,0,0,0,0,0,0,0,0,0,0,0,0,0,0,0,0,0,0,0,0,0,0,0,0,0,0,0,0,0,0,0,0,0,0,0,0,0,0,0,0,0,0,0,0,0,0,0,0,0,0,0,0,0,0,0,0,0,0,0,0,0,0,0,0,0,0,0,0,0,0,0,0,0,0,0,0,0,0,0,0,0,0,0,0,0],"sum_hessian":[2.22369E5,1.7795E5,4.4419E4,1.10402E5,6.7548E4,3.6567E4,7.852E3,6.923E4,4.1172E4,4.3382E4,2.4166E4,2.8106E4,8.461E3,5.825E3,2.027E3,4.442E4,2.481E4,2.0156E4,2.1016E4,3.3952E4,9.43E3,2.0192E4,3.974E3,6.679E3,2.1427E4,5.54E3,2.921E3,3.955E3,1.87E3,1.893E3,1.34E2,3.792E4,6.5E3,1.0131E4,1.4679E4,1.021E3,1.9135E4,1.3464E4,7.552E3,1.9743E4,1.4209E4,7.255E3,2.175E3,1.634E4,3.852E3,1.292E3,2.682E3,5.56E3,1.119E3,1.2033E4,9.394E3,4.598E3,9.42E2,2.653E3,2.68E2,1.843E3,2.112E3,1.209E3,6.61E2,1.317E3,5.76E2,9.9E1,3.5E1,1.361E4,2.431E4,3.857E3,2.643E3,9.329E3,8.02E2,4.862E3,9.817E3,2.21E2,8E2,4.005E3,1.513E4,1.0904E4,2.56E3,6.557E3,9.95E2,2.265E3,1.7478E4,1.1524E4,2.685E3,4.895E3,2.36E3,2.164E3,1.1E1,1.2046E4,4.294E3,3.673E3,1.79E2,1.281E3,1.1E1,2.68E3,2E0,3.7E3,1.86E3,7.25E2,3.94E2,3.407E3,8.626E3,3.006E3,6.388E3,2.235E3,2.363E3,6.73E2,2.69E2,1.976E3,6.77E2,2.38E2,3E1,9.7E1,1.746E3,1.405E3,7.07E2,9.66E2,2.43E2,1.05E2,5.56E2,9.78E2,3.39E2,2.23E2,3.53E2,7.5E1,2.4E1,3E0,3.2E1],"tree_param":{"num_deleted":"0","num_feature":"24","num_nodes":"127","size_leaf_vector":"1"}},{"base_weights":[-2.7059505E-3,-6.758263E-2,3.141482E-1,-1.3071094E-1,2.6019936E-2,2.392327E-1,7.0258147E-1,-9.785967E-2,-1.8651979E-1,1.6177429E-3,1.132728E-1,1.9009358E-1,3.876543E-1,4.3645257E-1,9.786778E-1,-1.3547061E-1,-6.050501E-2,-2.1696626E-1,-1.1605862E-1,-3.275361E-2,6.6787116E-2,9.363972E-2,2.6484177E-1,1.2332137E-1,2.6262742E-1,3.2598126E-1,5.583896E-1,3.3194596E-1,6.692967E-1,8.444546E-1,1.6246977E0,-1.4687361E-1,-1.0202752E-3,-8.056043E-2,1.844655E-2,-2.6827717E-1,-1.9715694E-1,-1.836472E-1,-8.652184E-2,-7.13914E-2,2.2417866E-2,1.019893E-1,-5.186048E-2,6.300458E-2,1.9104187E-1,2.6039812E-1,4.2716914E-1,1.4506362E-1,-1.0384361E-2,2.1491587E-1,3.5760662E-1,2.7075094E-1,4.6790817E-1,6.709521E-1,4.450774E-1,3.5774535E-1,-3.30099E-2,6.441471E-1,4.015587E0,6.884864E-1,9.850753E-1,9.246833E-1,1.9207574E0,-1.8167173E-2,-1.0323526E-2,-5.3230016E-3,1.40908435E-2,-1.1360086E-2,-1.6443207E-3,9.234231E-4,2.6318464E-2,-2.978207E-2,-2.209062E-2,-2.1377886E-2,-1.2153301E-2,-1.8976783E-2,1.463239E-1,-9.91496E-3,1.2411889E-2,1.1338515E-3,-1.0256783E-2,-8.995748E-3,5.3310585E-3,7.0811063E-3,1.8904494E-2,-6.121076E-3,2.9429674E-2,9.224161E-3,-2.7550978E-3,1.48072215E-2,3.1418394E-2,1.8990127E-2,4.642647E-2,1.0213646E-2,2.336124E-2,-8.4754E-3,1.8608553E-2,2.1293927E-2,3.1755933E-1,3.0822674E-2,4.8894282E-2,2.349058E-2,4.675891E-2,3.99565E-2,6.7161694E-2,5.7434272E-2,1.0005107E-1,1.2342932E-2,5.4500874E-2,3.4550305E-2,1.1542191E-1,-2.0971192E-2,2.5352627E-2,5.443265E-2,1.0421475E-1,8.9449084E-1,2.548762E-2,4.5518E-2,8.2472764E-2,8.9059934E-2,1.3861482E-1,1.4061192E-1,6.1415374E-2,1.0477368E-1,2.2420816E-1],"categories":[],"categories_nodes":[],"categories_segments":[],"categories_sizes":[],"default_left":[0,0,0,0,0,0,0,0,0,0,0,0,0,0,0,0,0,0,0,0,0,0,0,0,0,0,0,0,0,0,0,0,0,0,0,0,0,0,0,0,0,0,0,0,0,0,0,0,0,0,0,0,0,0,0,0,0,0,0,0,0,0,0,0,0,0,0,0,0,0,0,0,0,0,0,0,0,0,0,0,0,0,0,0,0,0,0,0,0,0,0,0,0,0,0,0,0,0,0,0,0,0,0,0,0,0,0,0,0,0,0,0,0,0,0,0,0,0,0,0,0,0,0,0,0],"id":6,"left_children":[1,3,5,7,9,11,13,15,17,19,21,23,25,27,29,31,33,35,37,39,41,43,45,47,49,51,53,55,57,59,61,63,65,67,69,71,73,75,77,79,81,83,85,87,89,91,-1,93,95,97,99,101,103,105,107,109,111,113,115,117,119,121,123,-1,-1,-1,-1,-1,-1,-1,-1,-1,-1,-1,-1,-1,-1,-1,-1,-1,-1,-1,-1,-1,-1,-1,-1,-1,-1,-1,-1,-1,-1,-1,-1,-1,-1,-1,-1,-1,-1,-1,-1,-1,-1,-1,-1,-1,-1,-1,-1,-1,-1,-1,-1,-1,-1,-1,-1,-1,-1,-1,-1,-1,-1],"loss_changes":[4.5742E3,1.0913965E3,1.1003228E3,2.0221777E2,1.5839877E2,2.3116052E2,4.488125E2,9.7546936E1,8.765515E1,1.3022672E2,4.835817E1,1.1533862E2,8.2845215E1,7.557745E1,2.587605E2,5.304486E1,5.516577E1,2.895398E1,2.460707E1,8.1140656E1,8.385163E1,4.2944595E1,3.2076324E1,3.606363E1,5.166046E1,4.52984E1,2.637146E1,2.0274231E1,7.8541595E1,5.3845703E1,1.0495569E2,4.841327E1,2.0059126E1,5.885321E1,1.5910573E1,1.10546875E1,2.5859741E1,3.8077553E1,2.2847733E1,5.7739662E1,5.4432224E1,4.20085E1,1.4887266E1,2.9001434E1,1.8176956E1,2.668679E1,0E0,4.0534378E1,2.5381151E1,4.3811554E1,2.4597412E1,2.9340607E1,2.2313293E1,3.2760254E1,3.3521866E1,1.9200043E1,7.2934756E0,3.7492767E1,1.2748442E2,3.7195618E1,4.821411E1,2.230893E1,9.891968E1,0E0,0E0,0E0,0E0,0E0,0E0,0E0,0E0,0E0,0E0,0E0,0E0,0E0,0E0,0E0,0E0,0E0,0E0,0E0,0E0,0E0,0E0,0E0,0E0,0E0,0E0,0E0,0E0,0E0,0E0,0E0,0E0,0E0,0E0,0E0,0E0,0E0,0E0,0E0,0E0,0E0,0E0,0E0,0E0,0E0,0E0,0E0,0E0,0E0,0E0,0E0,0E0,0E0,0E0,0E0,0E0,0E0,0E0,0E0,0E0,0E0,0E0],"parents":[2147483647,0,0,1,1,2,2,3,3,4,4,5,5,6,6,7,7,8,8,9,9,10,10,11,11,12,12,13,13,14,14,15,15,16,16,17,17,18,18,19,19,20,20,21,21,22,22,23,23,24,24,25,25,26,26,27,27,28,28,29,29,30,30,31,31,32,32,33,33,34,34,35,35,36,36,37,37,38,38,39,39,40,40,41,41,42,42,43,43,44,44,45,45,47,47,48,48,49,49,50,50,51,51,52,52,53,53,54,54,55,55,56,56,57,57,58,58,59,59,60,60,61,61,62,62],"right_children":[2,4,6,8,10,12,14,16,18,20,22,24,26,28,30,32,34,36,38,40,42,44,46,48,50,52,54,56,58,60,62,64,66,68,70,72,74,76,78,80,82,84,86,88,90,92,-1,94,96,98,100,102,104,106,108,110,112,114,116,118,120,122,124,-1,-1,-1,-1,-1,-1,-1,-1,-1,-1,-1,-1,-1,-1,-1,-1,-1,-1,-1,-1,-1,-1,-1,-1,-1,-1,-1,-1,-1,-1,-1,-1,-1,-1,-1,-1,-1,-1,-1,-1,-1,-1,-1,-1,-1,-1,-1,-1,-1,-1,-1,-1,-1,-1,-1,-1,-1,-1,-1,-1,-1,-1],"split_conditions":[2.2857144E0,1.75E0,3.3333333E0,4.5E0,4.3E1,6E1,5.5E1,1.5E0,2.2E1,9E0,1.47E2,2.6666667E0,3.3333333E0,4.3333335E0,4.75E0,4E0,3.3E1,8.7E-2,4.472136E-1,9.402901E3,4.2E0,3E0,4.88E2,4.6E0,9E0,2.8333333E0,2.9E0,1.2E1,7.9E0,3E0,2.1950357E0,8E0,6E0,9E0,4.1E0,9E0,3E0,3.4E-1,1.18E2,3E0,5E0,3E0,3.02E-1,4.7E0,3E0,7.247863E3,4.2716914E-1,9E0,3.6E1,4.75E0,2.857143E0,1.79E2,4E0,3.0833333E0,1.03E-1,4.75E0,3.75E0,2.23E-1,3E0,5E0,5E0,3E0,2E0,-1.8167173E-2,-1.0323526E-2,-5.3230016E-3,1.40908435E-2,-1.1360086E-2,-1.6443207E-3,9.234231E-4,2.6318464E-2,-2.978207E-2,-2.209062E-2,-2.1377886E-2,-1.2153301E-2,-1.8976783E-2,1.463239E-1,-9.91496E-3,1.2411889E-2,1.1338515E-3,-1.0256783E-2,-8.995748E-3,5.3310585E-3,7.0811063E-3,1.8904494E-2,-6.121076E-3,2.9429674E-2,9.224161E-3,-2.7550978E-3,1.48072215E-2,3.1418394E-2,1.8990127E-2,4.642647E-2,1.0213646E-2,2.336124E-2,-8.4754E-3,1.8608553E-2,2.1293927E-2,3.1755933E-1,3.0822674E-2,4.8894282E-2,2.349058E-2,4.675891E-2,3.99565E-2,6.7161694E-2,5.7434272E-2,1.0005107E-1,1.2342932E-2,5.4500874E-2,3.4550305E-2,1.1542191E-1,-2.0971192E-2,2.5352627E-2,5.443265E-2,1.0421475E-1,8.9449084E-1,2.548762E-2,4.5518E-2,8.2472764E-2,8.9059934E-2,1.3861482E-1,1.4061192E-1,6.1415374E-2,1.0477368E-1,2.2420816E-1],"split_indices":[14,14,14,3,4,4,4,14,4,6,4,10,10,10,14,3,4,5,13,2,3,9,4,3,6,14,3,20,3,9,15,6,6,6,3,6,16,5,4,6,4,3,5,3,7,2,0,6,4,12,14,4,9,14,5,14,12,5,6,6,10,3,19,0,0,0,0,0,0,0,0,0,0,0,0,0,0,0,0,0,0,0,0,0,0,0,0,0,0,0,0,0,0,0,0,0,0,0,0,0,0,0,0,0,0,0,0,0,0,0,0,0,0,0,0,0,0,0,0,0,0,0,0,0,0],"split_type":[0,0,0,0,0,0,0,0,0,0,0,0,0,0,0,0,0,0,0,0,0,0,0,0,0,0,0,0,0,0,0,0,0,0,0,0,0,0,0,0,0,0,0,0,0,0,0,0,0,0,0,0,0,0,0,0,0,0,0,0,0,0,0,0,0,0,0,0,0,0,0,0,0,0,0,0,0,0,0,0,0,0,0,0,0,0,0,0,0,0,0,0,0,0,0,0,0,0,0,0,0,0,0,0,0,0,0,0,0,0,0,0,0,0,0,0,0,0,0,0,0,0,0,0,0],"sum_hessian":[2.22517E5,1.847E5,3.7817E4,1.10306E5,7.4394E4,3.1704E4,6.113E3,6.9436E4,4.087E4,5.8136E4,1.6258E4,2.382E4,7.884E3,3.114E3,2.999E3,3.4598E4,3.4838E4,2.8537E4,1.2333E4,3.8062E4,2.0074E4,1.4395E4,1.863E3,1.2404E4,1.1416E4,5.794E3,2.09E3,2.151E3,9.63E2,2.485E3,5.14E2,3.1893E4,2.705E3,2.7781E4,7.057E3,7.945E3,2.0592E4,3.749E3,8.584E3,2.2385E4,1.5677E4,1.5481E4,4.593E3,1.0952E4,3.443E3,1.862E3,1E0,1.0669E4,1.735E3,7.601E3,3.815E3,4.173E3,1.621E3,1.046E3,1.044E3,2.009E3,1.42E2,9.57E2,6E0,1.181E3,1.304E3,1.54E2,3.6E2,1.7742E4,1.4151E4,1.978E3,7.27E2,1.8333E4,9.448E3,6.802E3,2.55E2,4.89E3,3.055E3,1.688E4,3.712E3,3.736E3,1.3E1,8.099E3,4.85E2,6.127E3,1.6258E4,3.38E3,1.2297E4,1.14E4,4.081E3,4.473E3,1.2E2,8.279E3,2.673E3,2.554E3,8.89E2,1.385E3,4.77E2,7.187E3,3.482E3,1.259E3,4.76E2,7.597E3,4E0,2.775E3,1.04E3,3.532E3,6.41E2,1.216E3,4.05E2,8.11E2,2.35E2,2.48E2,7.96E2,1.98E3,2.9E1,8.8E1,5.4E1,7.67E2,1.9E2,2E0,4E0,4.37E2,7.44E2,1.058E3,2.46E2,5.9E1,9.5E1,9.8E1,2.62E2],"tree_param":{"num_deleted":"0","num_feature":"24","num_nodes":"125","size_leaf_vector":"1"}},{"base_weights":[2.013327E-3,-4.7540747E-2,3.553747E-1,-1.0418511E-1,5.3070214E-2,2.8627786E-1,7.275565E-1,-1.5022929E-1,-6.368575E-2,3.402871E-2,1.9413322E-1,2.3624682E-1,4.604997E-1,6.228794E-1,1.9020483E0,-1.772463E-1,-1.055358E-1,-8.3020516E-2,1.2153907E-3,-3.2902004E-3,7.9801425E-2,1.5534589E-1,2.940998E-1,1.6782288E-1,2.971434E-1,3.6750537E-1,6.836153E-1,5.286209E-1,1.0009223E0,5.1729435E-1,2.011574E0,-1.4998193E-1,-2.1625276E-1,-7.49633E-2,-1.4641671E-1,-5.912166E-2,-1.3964577E-1,-1.6648347E-2,1.08899646E-1,-7.195428E-2,1.8233554E-2,1.004117E-1,-2.5457893E-2,1.8736649E-1,1.622511E-2,1.3838676E-1,3.5331967E-1,1.4836068E-1,3.6585712E-1,2.7166262E-1,5.1116014E-1,2.3465818E-1,4.528611E-1,5.961192E-1,1.3623141E0,5.7885224E-1,3.040119E-1,1.1759429E0,5.895358E-1,-4.4507474E-1,1.0232052E0,2.2003288E0,1.068955E0,-1.5857456E-2,-3.8988998E-3,-2.4034532E-2,-1.7454546E-2,-2.4429208E-2,-6.187813E-3,-1.0527561E-2,-1.7861618E-2,-7.240936E-3,2.5035918E-3,-1.9062346E-2,-1.1957962E-2,-4.4179014E-3,4.9111377E-3,1.0314739E-2,1.87079E-1,-1.202524E-2,-2.1763311E-3,3.9477623E-3,-4.8122476E-3,7.3275417E-3,1.7091606E-2,-6.3470835E-3,1.9119743E-2,1.5998103E-2,3.219148E-2,-8.670983E-4,9.277112E-2,3.8418498E-2,5.3093242E-3,3.0714422E-2,5.256148E-2,8.891834E-3,1.956883E-2,2.4712091E-2,6.426904E-2,-5.5712354E-3,2.8455256E-2,4.724701E-2,1.2921952E-1,1.1072413E-2,3.4097396E-2,3.738837E-2,6.1138254E-2,9.03035E-2,4.4027265E-2,9.4777495E-2,1.9823772E-1,4.1740198E-2,6.5517716E-2,1.4166059E-2,5.1947273E-2,1.6261025E-3,1.2429452E-1,1.0390484E-1,3.479256E-2,-1.1238652E-1,8.540771E-2,6.375131E-3,1.6279712E-1,2.509848E-1,1.5125172E-1,2.5629792E-1,6.8845026E-2],"categories":[],"categories_nodes":[],"categories_segments":[],"categories_sizes":[],"default_left":[0,0,0,0,0,0,0,0,0,0,0,0,0,0,0,0,0,0,0,0,0,0,0,0,0,0,0,0,0,0,0,0,0,0,0,0,0,0,0,0,0,0,0,0,0,0,0,0,0,0,0,0,0,0,0,0,0,0,0,0,0,0,0,0,0,0,0,0,0,0,0,0,0,0,0,0,0,0,0,0,0,0,0,0,0,0,0,0,0,0,0,0,0,0,0,0,0,0,0,0,0,0,0,0,0,0,0,0,0,0,0,0,0,0,0,0,0,0,0,0,0,0,0,0,0,0,0],"id":7,"left_children":[1,3,5,7,9,11,13,15,17,19,21,23,25,27,29,31,33,35,37,39,41,43,45,47,49,51,53,55,57,59,61,63,65,67,69,71,73,75,77,79,81,83,85,87,89,91,93,95,97,99,101,103,105,107,109,111,113,115,117,119,121,123,125,-1,-1,-1,-1,-1,-1,-1,-1,-1,-1,-1,-1,-1,-1,-1,-1,-1,-1,-1,-1,-1,-1,-1,-1,-1,-1,-1,-1,-1,-1,-1,-1,-1,-1,-1,-1,-1,-1,-1,-1,-1,-1,-1,-1,-1,-1,-1,-1,-1,-1,-1,-1,-1,-1,-1,-1,-1,-1,-1,-1,-1,-1,-1,-1],"loss_changes":[3.8949463E3,1.1117637E3,7.033208E2,2.3273108E2,1.8873956E2,2.0102417E2,5.2537744E2,7.0505615E1,8.332831E1,1.057593E2,3.2358063E1,7.465643E1,1.0654126E2,1.3965393E2,5.2042603E1,3.8678467E1,2.749408E1,6.922955E1,2.9323908E1,5.040835E1,6.0327682E1,2.6827805E1,2.1482864E1,3.2494263E1,5.1585754E1,4.111197E1,8.903522E1,3.537494E1,5.5755676E1,1.3600975E1,5.5295288E1,2.0430115E1,1.5003479E1,2.7887154E1,1.245343E1,4.023684E1,1.5509308E1,2.3673265E1,2.178951E1,1.972979E1,3.6608257E1,4.447763E1,3.751754E1,1.7988632E1,2.560512E1,1.3502023E1,1.3291824E1,2.161943E1,2.4658127E1,3.5791687E1,2.9849487E1,1.8725075E1,2.7464813E1,6.3792633E1,4.2332123E1,3.1445068E1,2.0145054E1,4.2637817E1,2.5269707E1,9.778385E0,1.0340626E1,5.3471436E1,3.007058E1,0E0,0E0,0E0,0E0,0E0,0E0,0E0,0E0,0E0,0E0,0E0,0E0,0E0,0E0,0E0,0E0,0E0,0E0,0E0,0E0,0E0,0E0,0E0,0E0,0E0,0E0,0E0,0E0,0E0,0E0,0E0,0E0,0E0,0E0,0E0,0E0,0E0,0E0,0E0,0E0,0E0,0E0,0E0,0E0,0E0,0E0,0E0,0E0,0E0,0E0,0E0,0E0,0E0,0E0,0E0,0E0,0E0,0E0,0E0,0E0,0E0,0E0,0E0,0E0],"parents":[2147483647,0,0,1,1,2,2,3,3,4,4,5,5,6,6,7,7,8,8,9,9,10,10,11,11,12,12,13,13,14,14,15,15,16,16,17,17,18,18,19,19,20,20,21,21,22,22,23,23,24,24,25,25,26,26,27,27,28,28,29,29,30,30,31,31,32,32,33,33,34,34,35,35,36,36,37,37,38,38,39,39,40,40,41,41,42,42,43,43,44,44,45,45,46,46,47,47,48,48,49,49,50,50,51,51,52,52,53,53,54,54,55,55,56,56,57,57,58,58,59,59,60,60,61,61,62,62],"right_children":[2,4,6,8,10,12,14,16,18,20,22,24,26,28,30,32,34,36,38,40,42,44,46,48,50,52,54,56,58,60,62,64,66,68,70,72,74,76,78,80,82,84,86,88,90,92,94,96,98,100,102,104,106,108,110,112,114,116,118,120,122,124,126,-1,-1,-1,-1,-1,-1,-1,-1,-1,-1,-1,-1,-1,-1,-1,-1,-1,-1,-1,-1,-1,-1,-1,-1,-1,-1,-1,-1,-1,-1,-1,-1,-1,-1,-1,-1,-1,-1,-1,-1,-1,-1,-1,-1,-1,-1,-1,-1,-1,-1,-1,-1,-1,-1,-1,-1,-1,-1,-1,-1,-1,-1,-1,-1],"split_conditions":[2.4545455E0,1.8E0,1.09E2,1.4285715E0,7.3E1,3.25E0,5.1666665E0,1.5E1,3.2E1,2.0833333E0,3E0,1.9E1,5.4E1,3.6666667E0,1.5E0,4.5E0,4.5E0,4.5E0,2.111E3,5E0,4.7E0,5E0,-4.6666667E-1,1.1666666E0,1.0833334E0,5E0,1.1712892E0,5E0,2.081E3,3E0,2.99E2,4E0,1.795E3,7.589746E-2,1.8358237E-1,3.8E0,5E0,7.1E1,2E0,-8.3333336E-2,4.5E0,3.2E0,4.7E1,1.66E2,3E0,8.6E1,4.3647286E-1,3E0,1.2E1,8.181614E-2,2.5856816E3,1.777E3,2.3E1,6.4E1,4E0,4E0,2.081E3,9.574271E-1,1.5275252E0,6E0,1.73E2,1.972E3,1.7320508E0,-1.5857456E-2,-3.8988998E-3,-2.4034532E-2,-1.7454546E-2,-2.4429208E-2,-6.187813E-3,-1.0527561E-2,-1.7861618E-2,-7.240936E-3,2.5035918E-3,-1.9062346E-2,-1.1957962E-2,-4.4179014E-3,4.9111377E-3,1.0314739E-2,1.87079E-1,-1.202524E-2,-2.1763311E-3,3.9477623E-3,-4.8122476E-3,7.3275417E-3,1.7091606E-2,-6.3470835E-3,1.9119743E-2,1.5998103E-2,3.219148E-2,-8.670983E-4,9.277112E-2,3.8418498E-2,5.3093242E-3,3.0714422E-2,5.256148E-2,8.891834E-3,1.956883E-2,2.4712091E-2,6.426904E-2,-5.5712354E-3,2.8455256E-2,4.724701E-2,1.2921952E-1,1.1072413E-2,3.4097396E-2,3.738837E-2,6.1138254E-2,9.03035E-2,4.4027265E-2,9.4777495E-2,1.9823772E-1,4.1740198E-2,6.5517716E-2,1.4166059E-2,5.1947273E-2,1.6261025E-3,1.2429452E-1,1.0390484E-1,3.479256E-2,-1.1238652E-1,8.540771E-2,6.375131E-3,1.6279712E-1,2.509848E-1,1.5125172E-1,2.5629792E-1,6.8845026E-2],"split_indices":[14,14,4,14,4,14,12,4,4,14,9,4,4,14,13,3,3,3,0,4,3,3,22,22,22,16,1,3,0,21,4,3,0,1,1,3,4,4,19,22,3,3,4,4,17,4,1,3,4,1,0,0,4,4,9,16,0,13,11,9,4,0,11,0,0,0,0,0,0,0,0,0,0,0,0,0,0,0,0,0,0,0,0,0,0,0,0,0,0,0,0,0,0,0,0,0,0,0,0,0,0,0,0,0,0,0,0,0,0,0,0,0,0,0,0,0,0,0,0,0,0,0,0,0,0,0,0],"split_type":[0,0,0,0,0,0,0,0,0,0,0,0,0,0,0,0,0,0,0,0,0,0,0,0,0,0,0,0,0,0,0,0,0,0,0,0,0,0,0,0,0,0,0,0,0,0,0,0,0,0,0,0,0,0,0,0,0,0,0,0,0,0,0,0,0,0,0,0,0,0,0,0,0,0,0,0,0,0,0,0,0,0,0,0,0,0,0,0,0,0,0,0,0,0,0,0,0,0,0,0,0,0,0,0,0,0,0,0,0,0,0,0,0,0,0,0,0,0,0,0,0,0,0,0,0,0,0],"sum_hessian":[2.22433E5,1.95077E5,2.7356E4,1.24809E5,7.0268E4,2.3074E4,4.282E3,5.8405E4,6.6404E4,6.1912E4,8.356E3,1.7928E4,5.146E3,3.933E3,3.49E2,3.6399E4,2.2006E4,5.1162E4,1.5242E4,3.4106E4,2.7806E4,6.022E3,2.334E3,8.444E3,9.484E3,3.634E3,1.512E3,3.15E3,7.83E2,2.6E1,3.23E2,2.1427E4,1.4972E4,1.2592E4,9.414E3,3.5979E4,1.5183E4,1.3074E4,2.168E3,8.139E3,2.5967E4,2.3253E4,4.553E3,4.895E3,1.127E3,6.44E2,1.69E3,7.69E3,7.54E2,8.477E3,1.007E3,1.423E3,2.211E3,1.341E3,1.71E2,2.573E3,5.77E2,5.48E2,2.35E2,9E0,1.7E1,2.68E2,5.5E1,1.9887E4,1.54E3,9.487E3,5.485E3,9.02E2,1.169E4,4.135E3,5.279E3,3.1073E4,4.906E3,4.286E3,1.0897E4,9.216E3,3.858E3,2.162E3,6E0,4.147E3,3.992E3,1.967E4,6.297E3,1.6792E4,6.461E3,3.874E3,6.79E2,4.069E3,8.26E2,1.098E3,2.9E1,1.65E2,4.79E2,1.335E3,3.55E2,3.41E3,4.28E3,5.29E2,2.25E2,3.21E2,8.156E3,9.61E2,4.6E1,6.58E2,7.65E2,1.478E3,7.33E2,4.5E2,8.91E2,1.04E2,6.7E1,8.28E2,1.745E3,3.3E2,2.47E2,3E1,5.18E2,8.1E1,1.54E2,6E0,3E0,7E0,1E1,1.83E2,8.5E1,1E1,4.5E1],"tree_param":{"num_deleted":"0","num_feature":"24","num_nodes":"127","size_leaf_vector":"1"}},{"base_weights":[1.198093E-3,-5.815312E-2,2.3952197E-1,-1.1506966E-1,4.2838617E-3,1.85332E-1,5.792415E-1,-1.2883933E-1,-2.5582481E-2,-2.6687521E-2,5.7499446E-2,1.4795198E-1,3.0594158E-1,4.6486253E-1,1.0840274E0,-1.5196426E-1,-8.6673714E-2,-5.9098843E-2,3.858387E-2,-5.761937E-2,3.1839542E-2,3.423467E-2,1.3422588E-1,1.1130978E-1,2.219341E-1,2.4185935E-1,4.1484934E-1,3.2023594E-1,6.2872624E-1,8.4029806E-1,1.630342E0,-1.7026861E-1,-1.0844838E-1,-1.4230934E-1,-6.2020145E-2,-1.0163621E-1,-1.9469282E-2,-3.234498E-3,1.1355741E-1,-8.16455E-2,-5.030913E-3,7.276862E-4,1.0398083E-1,-3.1535488E-2,6.430638E-2,1.3328241E-1,3.4918997E-1,6.114291E-2,1.6856192E-1,1.6602507E-1,3.0730477E-1,4.6787363E-1,2.1895327E-1,3.1822512E-1,4.747576E-1,2.4405807E-1,4.9564487E-1,4.684818E-1,8.7319505E-1,5.080016E-1,9.707623E-1,1.4846809E0,2.9233298E0,-1.9617764E-2,-1.429492E-2,-1.2177154E-2,-1.823767E-3,-2.1306248E-2,-1.2073815E-2,-1.0337834E-2,-2.7168796E-3,4.647963E-3,-1.24173155E-2,-3.740156E-3,1.1379103E-2,-2.371352E-3,1.8536797E-2,7.3175415E-2,1.023467E-2,-9.347141E-3,-1.1066688E-3,-8.985146E-3,2.207687E-3,1.5680945E-1,-8.465178E-5,-1.4861337E-3,1.4379722E-2,-1.0716758E-2,-1.7955055E-4,4.0611173E-3,1.5076396E-2,8.339286E-3,1.803446E-2,-1.5036756E-3,9.735984E-3,1.0896059E-2,2.449282E-2,3.0698193E-2,1.3098386E-2,3.458067E-2,1.5374926E-2,5.608344E-2,2.0402267E-3,2.0297034E-2,5.846587E-2,2.6786579E-2,6.0324878E-2,4.886317E-2,-9.386277E-3,2.3324776E-2,2.0242468E-1,5.7285905E-2,-5.6100516E-3,4.0747564E-2,7.911087E-2,6.922475E-2,1.0755279E-1,5.485362E-2,-1.0426643E-1,1.080758E-1,4.290047E-2,1.2988086E-1,2.4140874E-1,1.8475803E-2,3.3891264E-1],"categories":[],"categories_nodes":[],"categories_segments":[],"categories_sizes":[],"default_left":[0,0,0,0,0,0,0,0,0,0,0,0,0,0,0,0,0,0,0,0,0,0,0,0,0,0,0,0,0,0,0,0,0,0,0,0,0,0,0,0,0,0,0,0,0,0,0,0,0,0,0,0,0,0,0,0,0,0,0,0,0,0,0,0,0,0,0,0,0,0,0,0,0,0,0,0,0,0,0,0,0,0,0,0,0,0,0,0,0,0,0,0,0,0,0,0,0,0,0,0,0,0,0,0,0,0,0,0,0,0,0,0,0,0,0,0,0,0,0,0,0,0,0,0,0],"id":8,"left_children":[1,3,5,7,9,11,13,15,17,19,21,23,25,27,29,31,33,35,37,39,41,43,45,47,49,51,53,55,57,59,61,63,65,67,69,71,73,75,77,79,81,83,85,87,89,91,-1,93,95,97,99,101,103,105,107,109,111,113,115,117,119,121,123,-1,-1,-1,-1,-1,-1,-1,-1,-1,-1,-1,-1,-1,-1,-1,-1,-1,-1,-1,-1,-1,-1,-1,-1,-1,-1,-1,-1,-1,-1,-1,-1,-1,-1,-1,-1,-1,-1,-1,-1,-1,-1,-1,-1,-1,-1,-1,-1,-1,-1,-1,-1,-1,-1,-1,-1,-1,-1,-1,-1,-1,-1],"loss_changes":[3.1428496E3,6.321676E2,8.15447E2,1.14664795E2,1.3981827E2,1.722113E2,3.5134473E2,7.8625854E1,2.6693657E1,9.708006E1,5.5704178E1,7.905127E1,6.2983276E1,1.17582886E2,1.48427E2,4.1467285E1,3.917415E1,1.3741837E1,1.3353489E1,4.432686E1,4.1616505E1,4.7368862E1,2.2536407E1,5.6025574E1,4.606082E1,2.9370789E1,1.9223328E1,3.518216E1,9.082886E1,3.3322083E1,6.0824707E1,2.5920532E1,1.8535782E1,1.336084E1,2.8532372E1,1.3131096E1,1.0093406E1,1.0568044E1,1.0494013E1,2.0098373E1,2.5301147E1,3.196838E1,2.6439075E1,1.6903276E1,3.3663116E1,1.7030792E1,0E0,2.8695E1,4.144232E1,2.8805313E1,2.2543213E1,2.1743935E1,3.0106018E1,1.8268433E1,1.6328949E1,3.501455E1,3.407161E1,2.7409882E1,3.2974854E1,1.4525867E1,3.2847656E1,5.0935608E1,4.2744843E1,0E0,0E0,0E0,0E0,0E0,0E0,0E0,0E0,0E0,0E0,0E0,0E0,0E0,0E0,0E0,0E0,0E0,0E0,0E0,0E0,0E0,0E0,0E0,0E0,0E0,0E0,0E0,0E0,0E0,0E0,0E0,0E0,0E0,0E0,0E0,0E0,0E0,0E0,0E0,0E0,0E0,0E0,0E0,0E0,0E0,0E0,0E0,0E0,0E0,0E0,0E0,0E0,0E0,0E0,0E0,0E0,0E0,0E0,0E0,0E0,0E0,0E0],"parents":[2147483647,0,0,1,1,2,2,3,3,4,4,5,5,6,6,7,7,8,8,9,9,10,10,11,11,12,12,13,13,14,14,15,15,16,16,17,17,18,18,19,19,20,20,21,21,22,22,23,23,24,24,25,25,26,26,27,27,28,28,29,29,30,30,31,31,32,32,33,33,34,34,35,35,36,36,37,37,38,38,39,39,40,40,41,41,42,42,43,43,44,44,45,45,47,47,48,48,49,49,50,50,51,51,52,52,53,53,54,54,55,55,56,56,57,57,58,58,59,59,60,60,61,61,62,62],"right_children":[2,4,6,8,10,12,14,16,18,20,22,24,26,28,30,32,34,36,38,40,42,44,46,48,50,52,54,56,58,60,62,64,66,68,70,72,74,76,78,80,82,84,86,88,90,92,-1,94,96,98,100,102,104,106,108,110,112,114,116,118,120,122,124,-1,-1,-1,-1,-1,-1,-1,-1,-1,-1,-1,-1,-1,-1,-1,-1,-1,-1,-1,-1,-1,-1,-1,-1,-1,-1,-1,-1,-1,-1,-1,-1,-1,-1,-1,-1,-1,-1,-1,-1,-1,-1,-1,-1,-1,-1,-1,-1,-1,-1,-1,-1,-1,-1,-1,-1,-1,-1,-1,-1,-1,-1],"split_conditions":[2.1818182E0,1.6E0,3.3333333E0,4E1,2.4E1,6E1,1.57E2,9E0,7.1E1,9E0,7.6E1,9E0,2.7142856E0,3.6E1,4.75E0,1.5E0,5E-1,7E0,1.5E0,2E0,2E0,1.02E-1,4.5E0,1.801E3,2.6E0,2.2628813E3,-4E-1,9E0,3E0,5E0,1.2E1,9E0,3E0,1.1666666E0,1.686E3,1E0,2.111E3,1.61E2,6.23556E2,5.833333E-1,4E0,1.031E3,1.599E3,5.2E-2,3E0,7E0,3.4918997E-1,8E0,2.5833333E0,1E0,1.4446822E4,7E0,2.35E2,2.365E3,1E1,1.4E1,2.8E1,2.438E3,5.833333E-1,1.4000855E4,2.178E3,1.1141857E4,4.4E0,-1.9617764E-2,-1.429492E-2,-1.2177154E-2,-1.823767E-3,-2.1306248E-2,-1.2073815E-2,-1.0337834E-2,-2.7168796E-3,4.647963E-3,-1.24173155E-2,-3.740156E-3,1.1379103E-2,-2.371352E-3,1.8536797E-2,7.3175415E-2,1.023467E-2,-9.347141E-3,-1.1066688E-3,-8.985146E-3,2.207687E-3,1.5680945E-1,-8.465178E-5,-1.4861337E-3,1.4379722E-2,-1.0716758E-2,-1.7955055E-4,4.0611173E-3,1.5076396E-2,8.339286E-3,1.803446E-2,-1.5036756E-3,9.735984E-3,1.0896059E-2,2.449282E-2,3.0698193E-2,1.3098386E-2,3.458067E-2,1.5374926E-2,5.608344E-2,2.0402267E-3,2.0297034E-2,5.846587E-2,2.6786579E-2,6.0324878E-2,4.886317E-2,-9.386277E-3,2.3324776E-2,2.0242468E-1,5.7285905E-2,-5.6100516E-3,4.0747564E-2,7.911087E-2,6.922475E-2,1.0755279E-1,5.485362E-2,-1.0426643E-1,1.080758E-1,4.290047E-2,1.2988086E-1,2.4140874E-1,1.8475803E-2,3.3891264E-1],"split_indices":[14,14,14,4,4,4,4,6,4,6,4,6,14,4,14,10,15,6,10,14,14,5,10,0,12,2,22,6,17,16,6,4,9,14,0,9,0,4,2,22,4,0,0,5,9,6,0,4,14,9,2,20,4,0,20,16,4,0,22,2,0,2,12,0,0,0,0,0,0,0,0,0,0,0,0,0,0,0,0,0,0,0,0,0,0,0,0,0,0,0,0,0,0,0,0,0,0,0,0,0,0,0,0,0,0,0,0,0,0,0,0,0,0,0,0,0,0,0,0,0,0,0,0,0,0],"split_type":[0,0,0,0,0,0,0,0,0,0,0,0,0,0,0,0,0,0,0,0,0,0,0,0,0,0,0,0,0,0,0,0,0,0,0,0,0,0,0,0,0,0,0,0,0,0,0,0,0,0,0,0,0,0,0,0,0,0,0,0,0,0,0,0,0,0,0,0,0,0,0,0,0,0,0,0,0,0,0,0,0,0,0,0,0,0,0,0,0,0,0,0,0,0,0,0,0,0,0,0,0,0,0,0,0,0,0,0,0,0,0,0,0,0,0,0,0,0,0,0,0,0,0,0,0],"sum_hessian":[2.22189E5,1.77889E5,4.43E4,9.3058E4,8.4831E4,3.8207E4,6.093E3,8.0648E4,1.241E4,5.3623E4,3.1208E4,2.9169E4,9.038E3,4.969E3,1.124E3,5.2082E4,2.8566E4,8.152E3,4.258E3,3.5082E4,1.8541E4,2.3948E4,7.26E3,1.9509E4,9.66E3,5.692E3,3.346E3,2.641E3,2.328E3,7.79E2,3.45E2,3.6659E4,1.5423E4,8.77E3,1.9796E4,3.931E3,4.221E3,2.734E3,1.524E3,2.408E4,1.1002E4,1.2955E4,5.586E3,7.514E3,1.6434E4,7.259E3,1E0,1.0399E4,9.11E3,5.839E3,3.821E3,5.22E2,5.17E3,1.283E3,2.063E3,1.843E3,7.98E2,1.408E3,9.2E2,2.21E2,5.58E2,3.12E2,3.3E1,1.8812E4,1.7847E4,1.3438E4,1.985E3,2.047E3,6.723E3,9.052E3,1.0744E4,5.19E2,3.412E3,3.721E3,5E2,2.467E3,2.67E2,2.6E1,1.498E3,2.0624E4,3.456E3,2.664E3,8.338E3,1.2E1,1.2943E4,1.402E3,4.184E3,2.12E3,5.394E3,1.29E4,3.534E3,3.525E3,3.734E3,3.351E3,7.048E3,5.118E3,3.992E3,1.161E3,4.678E3,3.054E3,7.67E2,4.32E2,9E1,4.955E3,2.15E2,1.092E3,1.91E2,2.014E3,4.9E1,1.833E3,1E1,7E2,9.8E1,1.186E3,2.22E2,4.88E2,4.32E2,2.16E2,5E0,4.63E2,9.5E1,2.62E2,5E1,5E0,2.8E1],"tree_param":{"num_deleted":"0","num_feature":"24","num_nodes":"125","size_leaf_vector":"1"}},{"base_weights":[-2.3055467E-4,-6.738308E-2,1.8150368E-1,-1.1444917E-1,-2.4547957E-2,1.3465564E-1,4.9392655E-1,-8.7171584E-2,-1.5631753E-1,-3.4165744E-2,8.93074E-2,9.6707374E-2,2.2754571E-1,4.0197158E-1,9.395766E-1,-1.0227812E-1,1.1924856E-2,-1.7642978E-1,-1.02352925E-1,-1.3275762E-2,-9.131505E-2,8.810082E-2,4.037842E-1,4.4633053E-2,1.3700628E-1,1.6060303E-1,3.401647E-1,3.2185972E-1,5.432685E-1,8.163389E-1,2.0398653E0,-1.1099754E-1,2.0869879E-2,-6.805202E-2,5.8765993E-2,-2.2382961E-1,-1.6205887E-1,-1.5413906E-1,-7.433723E-2,-2.7656697E-2,6.74828E-2,-1.1212831E-1,-6.0788295E-3,8.668634E-2,3.1785968E-1,5.9412356E-2,-2.0394307E-1,4.1043673E-2,1.6653667E-1,9.359216E-2,2.1807131E-1,2.7555397E-1,4.564106E-1,3.0284765E-1,9.7315615E-1,9.675692E-1,5.107102E-1,2.8910038E-1,9.4593894E-1,4.5231992E-1,2.282309E0,-2.4660477E-2,-1.04823215E-2,-3.3441655E-2,3.0497254E-3,1.2358115E-1,-7.374088E-3,-5.694384E-3,8.838102E-3,-2.2445558E-2,9.287117E-2,-1.9033056E-2,-1.3850452E-2,-1.6168153E-2,3.643956E-2,-7.6831146E-3,1.04746856E-1,-5.549657E-3,1.9776763E-3,-6.7504714E-3,8.958237E-3,-1.3897351E-2,-6.4861714E-3,-4.470738E-3,6.894768E-3,5.2020666E-3,1.5168636E-2,4.422547E-3,1.8586844E-2,1.4354764E-1,-2.0915227E-2,-2.2147063E-3,1.4708533E-2,1.8856494E-2,5.282124E-3,1.6150374E-2,1.0019548E-3,1.5600778E-2,3.071836E-2,2.1721724E-2,3.9818484E-2,-1.9453593E-3,4.9584176E-2,-7.4750693E-3,3.2157477E-2,3.970456E-2,2.2080696E-1,7.040611E-2,2.2980714E-1,3.9834235E-2,6.9053285E-2,-3.533527E-2,6.025457E-2,5.850926E-2,1.0759141E-1,1.4160298E-1,-2.2784663E-2,2.8599256E-1,1.0214143E-1],"categories":[],"categories_nodes":[],"categories_segments":[],"categories_sizes":[],"default_left":[0,0,0,0,0,0,0,0,0,0,0,0,0,0,0,0,0,0,0,0,0,0,0,0,0,0,0,0,0,0,0,0,0,0,0,0,0,0,0,0,0,0,0,0,0,0,0,0,0,0,0,0,0,0,0,0,0,0,0,0,0,0,0,0,0,0,0,0,0,0,0,0,0,0,0,0,0,0,0,0,0,0,0,0,0,0,0,0,0,0,0,0,0,0,0,0,0,0,0,0,0,0,0,0,0,0,0,0,0,0,0,0,0,0,0,0,0,0,0],"id":9,"left_children":[1,3,5,7,9,11,13,15,17,19,21,23,25,27,29,31,33,35,37,39,41,43,-1,45,47,49,51,53,55,57,59,61,63,65,67,69,71,73,75,77,79,81,83,85,-1,87,89,91,93,95,97,99,101,103,105,107,109,111,113,115,117,-1,-1,-1,-1,-1,-1,-1,-1,-1,-1,-1,-1,-1,-1,-1,-1,-1,-1,-1,-1,-1,-1,-1,-1,-1,-1,-1,-1,-1,-1,-1,-1,-1,-1,-1,-1,-1,-1,-1,-1,-1,-1,-1,-1,-1,-1,-1,-1,-1,-1,-1,-1,-1,-1,-1,-1,-1,-1],"loss_changes":[2.7130151E3,3.2725964E2,8.778395E2,8.831732E1,9.3063644E1,1.8384644E2,3.20125E2,7.011188E1,3.3095947E1,9.3554695E1,3.118351E1,7.771112E1,1.13995605E2,7.3232544E1,1.7962793E2,4.363968E1,2.3215504E1,1.5102905E1,1.2010063E1,6.665251E1,3.721344E1,2.8658974E1,0E0,5.9373077E1,5.9154694E1,3.6525574E1,4.2227234E1,5.098114E1,3.1900879E1,8.199603E1,5.054297E1,3.1750702E1,9.204435E0,1.706976E1,1.33967705E1,3.9369812E0,1.1332916E1,1.1432236E1,1.5129238E1,6.433127E1,2.5885006E1,2.1384323E1,1.1937726E1,1.4901989E1,0E0,2.9282864E1,8.046055E0,3.293123E1,3.9979126E1,2.4874302E1,2.8202484E1,2.5860626E1,3.778134E1,2.8486084E1,8.236255E1,5.6581284E1,4.377466E1,4.834127E1,4.467694E1,1.2776818E1,8.156323E1,0E0,0E0,0E0,0E0,0E0,0E0,0E0,0E0,0E0,0E0,0E0,0E0,0E0,0E0,0E0,0E0,0E0,0E0,0E0,0E0,0E0,0E0,0E0,0E0,0E0,0E0,0E0,0E0,0E0,0E0,0E0,0E0,0E0,0E0,0E0,0E0,0E0,0E0,0E0,0E0,0E0,0E0,0E0,0E0,0E0,0E0,0E0,0E0,0E0,0E0,0E0,0E0,0E0,0E0,0E0,0E0,0E0,0E0],"parents":[2147483647,0,0,1,1,2,2,3,3,4,4,5,5,6,6,7,7,8,8,9,9,10,10,11,11,12,12,13,13,14,14,15,15,16,16,17,17,18,18,19,19,20,20,21,21,23,23,24,24,25,25,26,26,27,27,28,28,29,29,30,30,31,31,32,32,33,33,34,34,35,35,36,36,37,37,38,38,39,39,40,40,41,41,42,42,43,43,45,45,46,46,47,47,48,48,49,49,50,50,51,51,52,52,53,53,54,54,55,55,56,56,57,57,58,58,59,59,60,60],"right_children":[2,4,6,8,10,12,14,16,18,20,22,24,26,28,30,32,34,36,38,40,42,44,-1,46,48,50,52,54,56,58,60,62,64,66,68,70,72,74,76,78,80,82,84,86,-1,88,90,92,94,96,98,100,102,104,106,108,110,112,114,116,118,-1,-1,-1,-1,-1,-1,-1,-1,-1,-1,-1,-1,-1,-1,-1,-1,-1,-1,-1,-1,-1,-1,-1,-1,-1,-1,-1,-1,-1,-1,-1,-1,-1,-1,-1,-1,-1,-1,-1,-1,-1,-1,-1,-1,-1,-1,-1,-1,-1,-1,-1,-1,-1,-1,-1,-1,-1,-1],"split_conditions":[2.0833333E0,1.5833334E0,3.1666667E0,4.5E0,7.4E1,2.5833333E0,1.57E2,3.9E0,2.2E1,4.5E0,4.88E2,1.7E1,3.9E1,5.4E1,6.5E0,5.8E1,1.569E3,3E0,6.385201E3,3.8E0,2.081E3,4E0,4.037842E-1,7.4E0,-5.555556E-1,-1.6666667E-1,5E0,6.6666665E0,7.990886E2,7E0,2.1602468E0,7.589746E-2,7.267037E-2,-3.3333334E-1,7.2E-2,2.9267732E3,7.401759E3,5.3058147E0,1.61E2,1.824E3,5.8E-2,1.1421684E4,1.97E-1,1.9166666E0,3.1785968E-1,9.166667E-1,-1.4166666E0,1.917E3,4.9E0,1.7511901E0,1.827E3,1.12E2,4.2E-2,1.448E3,1.968E3,4.5E0,2.038E3,1.85E2,5E0,1.95E2,9E0,-2.4660477E-2,-1.04823215E-2,-3.3441655E-2,3.0497254E-3,1.2358115E-1,-7.374088E-3,-5.694384E-3,8.838102E-3,-2.2445558E-2,9.287117E-2,-1.9033056E-2,-1.3850452E-2,-1.6168153E-2,3.643956E-2,-7.6831146E-3,1.04746856E-1,-5.549657E-3,1.9776763E-3,-6.7504714E-3,8.958237E-3,-1.3897351E-2,-6.4861714E-3,-4.470738E-3,6.894768E-3,5.2020666E-3,1.5168636E-2,4.422547E-3,1.8586844E-2,1.4354764E-1,-2.0915227E-2,-2.2147063E-3,1.4708533E-2,1.8856494E-2,5.282124E-3,1.6150374E-2,1.0019548E-3,1.5600778E-2,3.071836E-2,2.1721724E-2,3.9818484E-2,-1.9453593E-3,4.9584176E-2,-7.4750693E-3,3.2157477E-2,3.970456E-2,2.2080696E-1,7.040611E-2,2.2980714E-1,3.9834235E-2,6.9053285E-2,-3.533527E-2,6.025457E-2,5.850926E-2,1.0759141E-1,1.4160298E-1,-2.2784663E-2,2.8599256E-1,1.0214143E-1],"split_indices":[14,14,14,3,4,14,4,3,4,3,4,4,4,4,12,4,0,4,2,3,0,10,0,3,22,22,16,10,2,20,13,1,1,23,5,0,2,1,4,0,5,2,5,14,0,22,22,0,3,15,0,4,5,0,0,3,0,4,16,4,8,0,0,0,0,0,0,0,0,0,0,0,0,0,0,0,0,0,0,0,0,0,0,0,0,0,0,0,0,0,0,0,0,0,0,0,0,0,0,0,0,0,0,0,0,0,0,0,0,0,0,0,0,0,0,0,0,0,0],"split_type":[0,0,0,0,0,0,0,0,0,0,0,0,0,0,0,0,0,0,0,0,0,0,0,0,0,0,0,0,0,0,0,0,0,0,0,0,0,0,0,0,0,0,0,0,0,0,0,0,0,0,0,0,0,0,0,0,0,0,0,0,0,0,0,0,0,0,0,0,0,0,0,0,0,0,0,0,0,0,0,0,0,0,0,0,0,0,0,0,0,0,0,0,0,0,0,0,0,0,0,0,0,0,0,0,0,0,0,0,0,0,0,0,0,0,0,0,0,0,0],"sum_hessian":[2.22305E5,1.62325E5,5.998E4,7.7342E4,8.4983E4,5.216E4,7.82E3,4.6833E4,3.0509E4,7.8364E4,6.619E3,3.7033E4,1.5127E4,6.484E3,1.336E3,4.0638E4,6.195E3,2.2224E4,8.285E3,5.7388E4,2.0976E4,6.618E3,1E0,1.6157E4,2.0876E4,9.489E3,5.638E3,4.14E3,2.344E3,1.203E3,1.33E2,3.7951E4,2.687E3,2.288E3,3.907E3,5.167E3,1.7057E4,2.907E3,5.378E3,4.8714E4,8.674E3,1.6859E4,4.117E3,6.616E3,2E0,1.5251E4,9.06E2,4.913E3,1.5963E4,4.382E3,5.107E3,3.626E3,2.012E3,4.024E3,1.16E2,1.65E2,2.179E3,2.38E2,9.65E2,1.8E1,1.15E2,1.651E3,3.63E4,7E1,2.617E3,9E0,2.279E3,7.96E2,3.111E3,5.165E3,2E0,7.749E3,9.308E3,2.866E3,4.1E1,5.367E3,1.1E1,3.0697E4,1.8017E4,1.22E3,7.454E3,1.0751E4,6.108E3,2.718E3,1.399E3,4.316E3,2.3E3,1.3617E4,1.634E3,2E0,9.04E2,3.079E3,1.834E3,1.3372E4,2.591E3,2.417E3,1.965E3,3.012E3,2.095E3,2.459E3,1.167E3,1.54E2,1.858E3,1.9E2,3.834E3,8E1,3.6E1,1.39E2,2.6E1,1.343E3,8.36E2,7.8E1,1.6E2,2.57E2,7.08E2,7E0,1.1E1,7.8E1,3.7E1],"tree_param":{"num_deleted":"0","num_feature":"24","num_nodes":"119","size_leaf_vector":"1"}},{"base_weights":[-1.1640208E-4,-4.2493924E-2,2.0784925E-1,-7.858585E-2,3.2647885E-2,1.4367281E-1,4.1349018E-1,-5.5328034E-2,-1.1969638E-1,-1.0359267E-3,7.907021E-2,7.455709E-2,2.0086984E-1,3.3765757E-1,8.006993E-1,-7.799536E-2,-1.2385068E-2,-1.4131325E-1,-7.1846746E-2,-1.04393706E-1,1.7131718E-2,6.281922E-2,1.7900565E-1,5.8405213E-2,3.2577297E-1,1.9246277E-1,5.4780596E-1,2.701325E-1,5.2115536E-1,6.034251E-1,1.2889371E0,-1.0107693E-1,-1.4848402E-2,-1.3026713E-1,-1.2832397E-3,-1.6916889E-1,-1.1887618E-1,-8.388085E-2,9.291686E-2,-1.3074034E-1,7.0881285E-3,7.085939E-3,1.5764166E-1,5.434518E-3,8.647072E-2,1.6451447E-1,7.499332E-1,2.0934595E-2,1.3571894E-1,1.8911417E-1,6.157598E-1,1.7379808E-1,3.3156452E-1,4.9009553E-1,1.9844157E0,2.3767985E-1,5.864775E-1,2.8864217E-1,6.41312E-1,1.9106974E-1,6.727822E-1,-3.1742764E-1,1.3825648E0,-1.1670317E-2,-3.917347E-3,-5.6754253E-3,2.319679E-3,-1.6912447E-2,-5.0334404E-3,-1.3948315E-3,6.9158943E-3,-1.8720116E-2,-1.3300123E-2,-1.2809537E-2,-3.8882194E-3,-1.1319325E-2,-4.43477E-3,7.977861E-3,6.3199705E-1,-2.9338377E-3,-1.6071727E-2,-6.0828663E-3,1.3674478E-2,-2.8112428E-3,4.961251E-3,-2.8113832E-4,2.5697205E-2,2.9307944E-3,-6.943272E-3,7.3728E-3,2.2048648E-2,2.6605963E-3,2.0088172E-2,9.24053E-2,-6.831946E-2,-4.068416E-3,5.883298E-3,-1.1055866E-2,1.5687581E-2,5.4848153E-2,7.0044766E-3,4.4394895E-1,5.8270693E-2,1.373739E-2,2.4469525E-2,4.0121716E-2,1.9623099E-2,1.2749374E-2,6.4007856E-2,3.703308E-1,-2.6352096E-2,1.579324E-2,3.304877E-2,8.285924E-2,2.0200117E-2,-4.990762E-2,3.2406386E-2,5.6133837E-2,9.1321744E-2,2.6390061E-3,6.6754185E-2,4.6670344E-2,7.964055E-2,-8.882087E-2,4.3787792E-2,1.0339987E-1,1.8032461E-1],"categories":[],"categories_nodes":[],"categories_segments":[],"categories_sizes":[],"default_left":[0,0,0,0,0,0,0,0,0,0,0,0,0,0,0,0,0,0,0,0,0,0,0,0,0,0,0,0,0,0,0,0,0,0,0,0,0,0,0,0,0,0,0,0,0,0,0,0,0,0,0,0,0,0,0,0,0,0,0,0,0,0,0,0,0,0,0,0,0,0,0,0,0,0,0,0,0,0,0,0,0,0,0,0,0,0,0,0,0,0,0,0,0,0,0,0,0,0,0,0,0,0,0,0,0,0,0,0,0,0,0,0,0,0,0,0,0,0,0,0,0,0,0,0,0,0,0],"id":10,"left_children":[1,3,5,7,9,11,13,15,17,19,21,23,25,27,29,31,33,35,37,39,41,43,45,47,49,51,53,55,57,59,61,63,65,67,69,71,73,75,77,79,81,83,85,87,89,91,93,95,97,99,101,103,105,107,109,111,113,115,117,119,121,123,125,-1,-1,-1,-1,-1,-1,-1,-1,-1,-1,-1,-1,-1,-1,-1,-1,-1,-1,-1,-1,-1,-1,-1,-1,-1,-1,-1,-1,-1,-1,-1,-1,-1,-1,-1,-1,-1,-1,-1,-1,-1,-1,-1,-1,-1,-1,-1,-1,-1,-1,-1,-1,-1,-1,-1,-1,-1,-1,-1,-1,-1,-1,-1,-1],"loss_changes":[1.960476E3,5.0116888E2,4.9689807E2,1.1935327E2,9.375995E1,1.1344617E2,2.6270544E2,7.7609406E1,4.6644653E1,6.525233E1,4.093593E1,5.2721764E1,4.5698853E1,9.267798E1,1.4042249E2,7.605972E1,3.605077E1,1.9397339E1,2.7842094E1,1.5259533E1,4.17167E1,2.9435234E1,2.9048706E1,3.5381027E1,3.0992516E1,3.9753906E1,2.9786087E1,5.609906E1,5.6082092E1,2.9786774E1,6.3757324E1,3.6962463E1,2.227391E1,7.355751E0,2.2462765E1,9.013092E0,1.2687775E1,1.5155716E1,7.7708595E1,1.2768181E1,8.761348E0,4.129094E1,3.1430187E1,1.1317669E1,2.6211006E1,1.7247482E1,2.2340935E1,1.9216837E1,2.0791458E1,2.2854046E1,2.913578E1,3.4885162E1,1.7011215E1,1.9387894E1,5.5071354E1,3.673172E1,4.721414E1,1.935854E1,2.8343323E1,1.1909107E1,2.2429474E1,1.0735663E1,5.6496338E1,0E0,0E0,0E0,0E0,0E0,0E0,0E0,0E0,0E0,0E0,0E0,0E0,0E0,0E0,0E0,0E0,0E0,0E0,0E0,0E0,0E0,0E0,0E0,0E0,0E0,0E0,0E0,0E0,0E0,0E0,0E0,0E0,0E0,0E0,0E0,0E0,0E0,0E0,0E0,0E0,0E0,0E0,0E0,0E0,0E0,0E0,0E0,0E0,0E0,0E0,0E0,0E0,0E0,0E0,0E0,0E0,0E0,0E0,0E0,0E0,0E0,0E0,0E0,0E0],"parents":[2147483647,0,0,1,1,2,2,3,3,4,4,5,5,6,6,7,7,8,8,9,9,10,10,11,11,12,12,13,13,14,14,15,15,16,16,17,17,18,18,19,19,20,20,21,21,22,22,23,23,24,24,25,25,26,26,27,27,28,28,29,29,30,30,31,31,32,32,33,33,34,34,35,35,36,36,37,37,38,38,39,39,40,40,41,41,42,42,43,43,44,44,45,45,46,46,47,47,48,48,49,49,50,50,51,51,52,52,53,53,54,54,55,55,56,56,57,57,58,58,59,59,60,60,61,61,62,62],"right_children":[2,4,6,8,10,12,14,16,18,20,22,24,26,28,30,32,34,36,38,40,42,44,46,48,50,52,54,56,58,60,62,64,66,68,70,72,74,76,78,80,82,84,86,88,90,92,94,96,98,100,102,104,106,108,110,112,114,116,118,120,122,124,126,-1,-1,-1,-1,-1,-1,-1,-1,-1,-1,-1,-1,-1,-1,-1,-1,-1,-1,-1,-1,-1,-1,-1,-1,-1,-1,-1,-1,-1,-1,-1,-1,-1,-1,-1,-1,-1,-1,-1,-1,-1,-1,-1,-1,-1,-1,-1,-1,-1,-1,-1,-1,-1,-1,-1,-1,-1,-1,-1,-1,-1,-1,-1,-1],"split_conditions":[2.2857144E0,1.8E0,3.0833333E0,4.5E0,8E0,2E1,1.57E2,9E0,2.2E1,4E0,2.12E3,4E0,2.76E2,4.3333335E0,4.6666665E0,2.4E1,4.4095856E-1,1.4E0,2.344E3,1.95E3,1.05E2,-4.6666667E-1,1.4166666E0,9E0,1.2E1,2.307E3,3.75E0,1.11E2,1.8E1,2E0,1.5E0,3.2E0,1.719E3,1.763E3,3.3E0,1.806E3,2.189E3,1.779E3,2E0,1E0,1.2110602E0,9.402901E3,2E0,4E0,8.2E1,9E0,2.4494898E0,2.3333333E0,-1.1666666E0,3E0,1.189E3,9E0,4.6E0,5E0,4E0,7E0,1.29E2,2E0,4E0,1E1,3.4166667E0,2.11E2,4E0,-1.1670317E-2,-3.917347E-3,-5.6754253E-3,2.319679E-3,-1.6912447E-2,-5.0334404E-3,-1.3948315E-3,6.9158943E-3,-1.8720116E-2,-1.3300123E-2,-1.2809537E-2,-3.8882194E-3,-1.1319325E-2,-4.43477E-3,7.977861E-3,6.3199705E-1,-2.9338377E-3,-1.6071727E-2,-6.0828663E-3,1.3674478E-2,-2.8112428E-3,4.961251E-3,-2.8113832E-4,2.5697205E-2,2.9307944E-3,-6.943272E-3,7.3728E-3,2.2048648E-2,2.6605963E-3,2.0088172E-2,9.24053E-2,-6.831946E-2,-4.068416E-3,5.883298E-3,-1.1055866E-2,1.5687581E-2,5.4848153E-2,7.0044766E-3,4.4394895E-1,5.8270693E-2,1.373739E-2,2.4469525E-2,4.0121716E-2,1.9623099E-2,1.2749374E-2,6.4007856E-2,3.703308E-1,-2.6352096E-2,1.579324E-2,3.304877E-2,8.285924E-2,2.0200117E-2,-4.990762E-2,3.2406386E-2,5.6133837E-2,9.1321744E-2,2.6390061E-3,6.6754185E-2,4.6670344E-2,7.964055E-2,-8.882087E-2,4.3787792E-2,1.0339987E-1,1.8032461E-1],"split_indices":[14,14,14,3,6,4,4,6,4,4,0,10,4,10,12,4,15,14,0,0,4,22,22,6,4,0,12,4,4,7,13,3,0,0,3,0,0,0,19,9,13,2,12,3,4,4,13,10,22,6,0,6,3,6,7,6,4,3,9,6,14,4,17,0,0,0,0,0,0,0,0,0,0,0,0,0,0,0,0,0,0,0,0,0,0,0,0,0,0,0,0,0,0,0,0,0,0,0,0,0,0,0,0,0,0,0,0,0,0,0,0,0,0,0,0,0,0,0,0,0,0,0,0,0,0,0,0],"split_type":[0,0,0,0,0,0,0,0,0,0,0,0,0,0,0,0,0,0,0,0,0,0,0,0,0,0,0,0,0,0,0,0,0,0,0,0,0,0,0,0,0,0,0,0,0,0,0,0,0,0,0,0,0,0,0,0,0,0,0,0,0,0,0,0,0,0,0,0,0,0,0,0,0,0,0,0,0,0,0,0,0,0,0,0,0,0,0,0,0,0,0,0,0,0,0,0,0,0,0,0,0,0,0,0,0,0,0,0,0,0,0,0,0,0,0,0,0,0,0,0,0,0,0,0,0,0,0],"sum_hessian":[2.22449E5,1.84794E5,3.7655E4,1.24834E5,5.996E4,2.87E4,8.955E3,7.973E4,4.5104E4,3.4748E4,2.5212E4,1.2997E4,1.5703E4,7.49E3,1.465E3,5.2184E4,2.7546E4,3.1067E4,1.4037E4,5.194E3,2.9554E4,2.1687E4,3.525E3,1.2213E4,7.84E2,1.5333E4,3.7E2,5.477E3,2.013E3,1.045E3,4.2E2,3.8215E4,1.3969E4,2.37E3,2.5176E4,1.3857E4,1.721E4,1.3082E4,9.55E2,4.201E3,9.93E2,2.7583E4,1.971E3,6.33E3,1.5357E4,3.439E3,8.6E1,8.227E3,3.986E3,5.34E2,2.5E2,1.3521E4,1.812E3,3.57E2,1.3E1,4.969E3,5.08E2,6.87E2,1.326E3,1.51E2,8.94E2,2.3E1,3.97E2,3.0512E4,7.703E3,6.647E3,7.322E3,1.594E3,7.76E2,2.134E4,3.836E3,9.244E3,4.613E3,1.5431E4,1.779E3,7.511E3,5.571E3,9.54E2,1E0,9.59E2,3.242E3,6.52E2,3.41E2,1.5092E4,1.2491E4,7.54E2,1.217E3,4.8E3,1.53E3,1.4025E4,1.332E3,7.18E2,2.721E3,7.7E1,9E0,3.133E3,5.094E3,3.15E2,3.671E3,1.32E2,4.02E2,1E0,2.49E2,8.934E3,4.587E3,1.195E3,6.17E2,1.05E2,2.52E2,7E0,6E0,2.674E3,2.295E3,3.11E2,1.97E2,2.9E1,6.58E2,1.027E3,2.99E2,1.13E2,3.8E1,3.37E2,5.57E2,1.3E1,1E1,2.19E2,1.78E2],"tree_param":{"num_deleted":"0","num_feature":"24","num_nodes":"127","size_leaf_vector":"1"}},{"base_weights":[-2.7929505E-3,-3.5482027E-2,2.2971354E-1,-6.7961425E-2,4.433624E-2,2.0718461E-1,8.8649285E-1,-1.015798E-1,-4.3416895E-2,1.6012432E-2,8.69615E-2,1.52807E-1,3.3172926E-1,1.4359561E0,6.121107E-1,-7.943508E-2,-1.3243581E-1,-8.380162E-2,-2.4804298E-2,-3.5076648E-2,4.030068E-2,1.04971096E-1,1.5606227E-2,1.2186338E-1,2.2622137E-1,2.712076E-1,4.685714E-1,1.7901468E0,5.5428606E-1,4.237567E-1,1.1694785E0,-2.2028747E-1,-7.216058E-2,-1.4984047E-1,-8.7305956E-2,-6.772081E-2,-1.3913022E-1,-8.033714E-3,-6.1474808E-2,-2.6998911E-2,-2.578415E-1,5.3971775E-2,-3.0386379E-2,8.198718E-2,1.9975966E-1,3.2764846E-1,7.926649E-3,7.3848374E-2,1.7649962E-1,2.088139E-1,6.368653E-1,3.7989405E-1,2.2991388E-1,3.819019E-1,6.5160525E-1,2.0238514E0,7.17093E-1,6.4700407E-1,-8.2069355E-1,1.6796443E0,3.2180884E-1,9.793339E-1,2.6330285E0,4.422612E-3,-2.6208341E-2,-8.8616945E-3,-6.5368705E-4,-1.7511677E-2,-1.2342759E-2,-1.0546807E-2,-1.8735584E-3,-5.764002E-3,-1.5132043E-2,-1.8066738E-2,-1.1102693E-2,-1.5718149E-3,3.8432654E-3,-8.695527E-3,-9.5269794E-4,-4.573894E-3,5.3780912E-3,-3.1481545E-2,4.211464E-2,3.2053047E-3,9.598724E-3,-6.4510824E-3,1.4769256E-2,6.560787E-3,1.8098071E-2,9.976449E-3,2.4307603E-2,-2.5746766E-2,6.319091E-2,-5.7829744E-3,4.872397E-3,-1.573866E-2,8.814937E-3,1.8024102E-2,-6.679725E-2,2.1553714E-2,-3.6663517E-2,3.3315262E-1,5.5942368E-2,1.264293E-1,3.449785E-2,2.4050256E-2,-1.7041046E-2,2.6691148E-1,3.7209786E-2,9.643697E-2,4.48449E-2,1.2743297E-1,2.3364556E-1,3.5860464E-1,4.7172584E-2,9.648947E-2,2.6361737E-2,-1.566186E-1,-5.6400895E-3,5.0798953E-2,4.440817E-1,2.9208181E-2,2.3391576E-1,1.1846719E-1,-1.4787248E-2,3.1368938E-1,-7.639744E-2],"categories":[],"categories_nodes":[],"categories_segments":[],"categories_sizes":[],"default_left":[0,0,0,0,0,0,0,0,0,0,0,0,0,0,0,0,0,0,0,0,0,0,0,0,0,0,0,0,0,0,0,0,0,0,0,0,0,0,0,0,0,0,0,0,0,0,0,0,0,0,0,0,0,0,0,0,0,0,0,0,0,0,0,0,0,0,0,0,0,0,0,0,0,0,0,0,0,0,0,0,0,0,0,0,0,0,0,0,0,0,0,0,0,0,0,0,0,0,0,0,0,0,0,0,0,0,0,0,0,0,0,0,0,0,0,0,0,0,0,0,0,0,0,0,0,0,0],"id":11,"left_children":[1,3,5,7,9,11,13,15,17,19,21,23,25,27,29,31,33,35,37,39,41,43,45,47,49,51,53,55,57,59,61,63,65,67,69,71,73,75,77,79,81,83,85,87,89,91,93,95,97,99,101,103,105,107,109,111,113,115,117,119,121,123,125,-1,-1,-1,-1,-1,-1,-1,-1,-1,-1,-1,-1,-1,-1,-1,-1,-1,-1,-1,-1,-1,-1,-1,-1,-1,-1,-1,-1,-1,-1,-1,-1,-1,-1,-1,-1,-1,-1,-1,-1,-1,-1,-1,-1,-1,-1,-1,-1,-1,-1,-1,-1,-1,-1,-1,-1,-1,-1,-1,-1,-1,-1,-1,-1],"loss_changes":[1.6905854E3,5.0556946E2,4.055078E2,1.1437097E2,6.809569E1,1.794867E2,1.3616455E2,3.995758E1,6.02213E1,4.2051815E1,2.8934525E1,4.189676E1,6.659198E1,9.33161E1,6.3333755E1,3.487892E1,1.918222E1,2.247937E1,3.372841E1,1.9642876E1,2.2198189E1,3.9152893E1,1.0874447E1,3.40513E1,3.897522E1,2.4991974E1,3.891797E1,5.2465942E1,1.1749702E1,5.7843437E1,3.9999176E1,1.8496536E1,3.497287E1,1.1751862E1,8.471611E0,1.649739E1,6.6232147E0,1.3438851E1,2.2780594E1,1.595657E1,1.4910101E1,1.7721973E1,2.2633621E1,2.3453697E1,1.5170395E1,1.9567726E1,1.1889793E1,2.2874424E1,1.930809E1,2.0390625E1,4.4462982E1,4.7025314E1,1.7217041E1,3.6634262E1,4.9891235E1,3.825995E1,2.6466246E1,9.861263E0,3.3303123E0,1.07738914E2,2.4684006E1,3.1884995E1,3.1494263E1,0E0,0E0,0E0,0E0,0E0,0E0,0E0,0E0,0E0,0E0,0E0,0E0,0E0,0E0,0E0,0E0,0E0,0E0,0E0,0E0,0E0,0E0,0E0,0E0,0E0,0E0,0E0,0E0,0E0,0E0,0E0,0E0,0E0,0E0,0E0,0E0,0E0,0E0,0E0,0E0,0E0,0E0,0E0,0E0,0E0,0E0,0E0,0E0,0E0,0E0,0E0,0E0,0E0,0E0,0E0,0E0,0E0,0E0,0E0,0E0,0E0,0E0,0E0,0E0],"parents":[2147483647,0,0,1,1,2,2,3,3,4,4,5,5,6,6,7,7,8,8,9,9,10,10,11,11,12,12,13,13,14,14,15,15,16,16,17,17,18,18,19,19,20,20,21,21,22,22,23,23,24,24,25,25,26,26,27,27,28,28,29,29,30,30,31,31,32,32,33,33,34,34,35,35,36,36,37,37,38,38,39,39,40,40,41,41,42,42,43,43,44,44,45,45,46,46,47,47,48,48,49,49,50,50,51,51,52,52,53,53,54,54,55,55,56,56,57,57,58,58,59,59,60,60,61,61,62,62],"right_children":[2,4,6,8,10,12,14,16,18,20,22,24,26,28,30,32,34,36,38,40,42,44,46,48,50,52,54,56,58,60,62,64,66,68,70,72,74,76,78,80,82,84,86,88,90,92,94,96,98,100,102,104,106,108,110,112,114,116,118,120,122,124,126,-1,-1,-1,-1,-1,-1,-1,-1,-1,-1,-1,-1,-1,-1,-1,-1,-1,-1,-1,-1,-1,-1,-1,-1,-1,-1,-1,-1,-1,-1,-1,-1,-1,-1,-1,-1,-1,-1,-1,-1,-1,-1,-1,-1,-1,-1,-1,-1,-1,-1,-1,-1,-1,-1,-1,-1,-1,-1,-1,-1,-1,-1,-1,-1],"split_conditions":[2.4545455E0,1.8888888E0,4.75E0,1.4285715E0,2.3333333E0,3.0833333E0,3E0,4.5E0,1.625E3,1.02E-1,4.5E0,2.9166666E-1,3.3333334E-1,1.32E-1,1.964E3,7.589746E-2,1.1421684E4,4.7E0,4.5E0,7.9E0,5E0,3.7E0,7.589746E-2,1.815E3,2.81E-1,2.7E0,3.6666667E0,1.972E3,4E0,1.2570121E3,8E0,9.9E-2,3.2E0,1.724E3,1.5E0,2.36E-1,9.3E-2,2.3333333E0,1.1496296E4,1.902E3,1.5691608E4,1.921E3,2.293E3,2.129E3,9.5E-2,1.403E3,1.766E3,9.052085E-2,1.1E1,1.1E1,8.8888064E-2,5.7735026E-1,1.3E1,9.374369E-1,2.081666E0,1E1,3.1666667E0,2.1213202E0,5.4E0,6E0,6.4291005E0,3.5118847E0,4.1666668E-2,4.422612E-3,-2.6208341E-2,-8.8616945E-3,-6.5368705E-4,-1.7511677E-2,-1.2342759E-2,-1.0546807E-2,-1.8735584E-3,-5.764002E-3,-1.5132043E-2,-1.8066738E-2,-1.1102693E-2,-1.5718149E-3,3.8432654E-3,-8.695527E-3,-9.5269794E-4,-4.573894E-3,5.3780912E-3,-3.1481545E-2,4.211464E-2,3.2053047E-3,9.598724E-3,-6.4510824E-3,1.4769256E-2,6.560787E-3,1.8098071E-2,9.976449E-3,2.4307603E-2,-2.5746766E-2,6.319091E-2,-5.7829744E-3,4.872397E-3,-1.573866E-2,8.814937E-3,1.8024102E-2,-6.679725E-2,2.1553714E-2,-3.6663517E-2,3.3315262E-1,5.5942368E-2,1.264293E-1,3.449785E-2,2.4050256E-2,-1.7041046E-2,2.6691148E-1,3.7209786E-2,9.643697E-2,4.48449E-2,1.2743297E-1,2.3364556E-1,3.5860464E-1,4.7172584E-2,9.648947E-2,2.6361737E-2,-1.566186E-1,-5.6400895E-3,5.0798953E-2,4.440817E-1,2.9208181E-2,2.3391576E-1,1.1846719E-1,-1.4787248E-2,3.1368938E-1,-7.639744E-2],"split_indices":[14,14,14,14,10,14,3,3,0,5,3,22,22,5,0,1,2,3,3,3,3,3,1,0,5,3,14,0,19,2,10,5,3,0,10,5,5,10,2,0,2,0,0,0,5,0,0,1,18,20,1,11,20,15,11,20,12,11,12,8,11,11,23,0,0,0,0,0,0,0,0,0,0,0,0,0,0,0,0,0,0,0,0,0,0,0,0,0,0,0,0,0,0,0,0,0,0,0,0,0,0,0,0,0,0,0,0,0,0,0,0,0,0,0,0,0,0,0,0,0,0,0,0,0,0,0,0],"split_type":[0,0,0,0,0,0,0,0,0,0,0,0,0,0,0,0,0,0,0,0,0,0,0,0,0,0,0,0,0,0,0,0,0,0,0,0,0,0,0,0,0,0,0,0,0,0,0,0,0,0,0,0,0,0,0,0,0,0,0,0,0,0,0,0,0,0,0,0,0,0,0,0,0,0,0,0,0,0,0,0,0,0,0,0,0,0,0,0,0,0,0,0,0,0,0,0,0,0,0,0,0,0,0,0,0,0,0,0,0,0,0,0,0,0,0,0,0,0,0,0,0,0,0,0,0,0,0],"sum_hessian":[2.22431E5,1.95014E5,2.7417E4,1.38611E5,5.6403E4,2.6509E4,9.08E2,5.8492E4,8.0119E4,3.3887E4,2.2516E4,1.8454E4,8.055E3,3.01E2,6.07E2,3.4055E4,2.4437E4,2.5275E4,5.4844E4,1.0919E4,2.2968E4,1.7978E4,4.538E3,1.2984E4,5.47E3,5.587E3,2.468E3,2.14E2,8.7E1,4.55E2,1.52E2,1.671E3,3.2384E4,1.7634E4,6.803E3,1.9585E4,5.69E3,3.7634E4,1.721E4,1.0538E4,3.81E2,1.9246E4,3.722E3,1.4471E4,3.507E3,1.08E2,4.43E3,6.912E3,6.072E3,5.249E3,2.21E2,1.536E3,4.051E3,1.677E3,7.91E2,1.75E2,3.9E1,8.2E1,5E0,3.3E1,4.22E2,1.36E2,1.6E1,2.28E2,1.443E3,2.5891E4,6.493E3,9.008E3,8.626E3,5.378E3,1.425E3,1.7479E4,2.106E3,2.294E3,3.396E3,3.2294E4,5.34E3,1.1546E4,5.664E3,8.554E3,1.984E3,3.52E2,2.9E1,1.2649E4,6.597E3,3.124E3,5.98E2,1.2418E4,2.053E3,1.061E3,2.446E3,3.7E1,7.1E1,1.696E3,2.734E3,4.02E2,6.51E3,6.046E3,2.6E1,5.189E3,6E1,5E0,2.16E2,5.7E1,1.479E3,3.947E3,1.04E2,6E0,1.671E3,3.1E2,4.81E2,5.3E1,1.22E2,2E0,3.7E1,4.4E1,3.8E1,2E0,3E0,2.4E1,9E0,4.17E2,5E0,1.15E2,2.1E1,1.4E1,2E0],"tree_param":{"num_deleted":"0","num_feature":"24","num_nodes":"127","size_leaf_vector":"1"}},{"base_weights":[1.6251948E-3,-4.6164133E-2,1.3100657E-1,-7.917508E-2,-7.439797E-3,9.494756E-2,3.3860406E-1,-1.0336789E-1,-5.1221058E-2,-2.8503772E-2,3.2487787E-2,6.401338E-2,1.5582685E-1,2.9696852E-1,7.127557E-1,-1.2754859E-1,-8.164401E-2,-7.3278904E-2,-2.3146594E-2,-5.2363224E-2,1.3552715E-2,1.9586764E-2,1.1824437E-1,3.7399825E-2,1.2855881E-1,1.1739489E-1,2.456648E-1,2.1965756E-1,3.8755652E-1,4.1488278E-1,1.0791897E0,-1.5355845E-1,-9.5024034E-2,6.3173056E-2,-8.819485E-2,-9.538605E-2,-2.0527994E-2,-5.350361E-2,2.7027648E-4,-8.565366E-3,-7.006702E-2,-8.725726E-3,5.63668E-2,1.9217653E-2,2.7758536E-1,1.1236466E-1,4.9215922E-1,-5.2086644E-2,5.1830065E-2,7.590087E-2,1.9087236E-1,1.4240643E-1,5.1273167E-2,3.040252E-1,1.5873682E-1,1.2397229E-1,2.9589123E-1,1.2730898E-1,4.157293E-1,3.2730424E-1,1.9110575E0,8.98345E-1,1.8855369E0,-1.7310893E-2,-1.2843862E-2,-1.2819308E-2,-5.1904544E-3,-5.1359325E-3,2.54473E-2,-1.2849266E-2,-7.7302842E-3,-1.0854007E-2,-1.0702114E-3,-2.6458139E-3,1.3935122E-2,-9.265935E-3,-2.9595045E-3,2.497702E-4,-6.0643952E-2,-4.5148297E-3,3.9001182E-3,-1.1341195E-2,-3.2758198E-3,1.936317E-2,-1.2562046E-3,1.2461328E-3,1.1956307E-2,-1.3086153E-4,6.5288506E-3,1.3719204E-2,-2.7624515E-3,1.0617878E-2,2.3244904E-1,1.8245135E-2,-7.5662504E-3,3.8495593E-2,4.8279483E-3,-1.3938646E-3,1.5578771E-2,1.981132E-2,-4.2519312E-2,8.030727E-3,1.8667268E-2,3.4684066E-3,4.3878835E-2,2.2495842E-2,4.176387E-2,7.5351633E-3,2.5447411E-2,9.127348E-3,4.331296E-2,2.2769911E-2,4.0549237E-2,5.6804724E-2,-6.3216715E-4,4.730582E-2,2.4475398E-2,1.11442484E-1,2.5881408E-2,3.2363003E-1,9.4113246E-2,1.2955432E-1,4.956692E-2,2.4234979E-1,7.086359E-2],"categories":[],"categories_nodes":[],"categories_segments":[],"categories_sizes":[],"default_left":[0,0,0,0,0,0,0,0,0,0,0,0,0,0,0,0,0,0,0,0,0,0,0,0,0,0,0,0,0,0,0,0,0,0,0,0,0,0,0,0,0,0,0,0,0,0,0,0,0,0,0,0,0,0,0,0,0,0,0,0,0,0,0,0,0,0,0,0,0,0,0,0,0,0,0,0,0,0,0,0,0,0,0,0,0,0,0,0,0,0,0,0,0,0,0,0,0,0,0,0,0,0,0,0,0,0,0,0,0,0,0,0,0,0,0,0,0,0,0,0,0,0,0,0,0],"id":12,"left_children":[1,3,5,7,9,11,13,15,17,19,21,23,25,27,29,31,33,35,37,39,41,43,45,47,49,51,53,55,57,59,61,63,65,67,69,71,73,75,77,79,81,83,85,87,-1,89,91,93,95,97,99,101,103,105,107,109,111,113,115,117,119,121,123,-1,-1,-1,-1,-1,-1,-1,-1,-1,-1,-1,-1,-1,-1,-1,-1,-1,-1,-1,-1,-1,-1,-1,-1,-1,-1,-1,-1,-1,-1,-1,-1,-1,-1,-1,-1,-1,-1,-1,-1,-1,-1,-1,-1,-1,-1,-1,-1,-1,-1,-1,-1,-1,-1,-1,-1,-1,-1,-1,-1,-1,-1],"loss_changes":[1.3762725E3,2.0778888E2,4.4941284E2,5.9336792E1,6.291192E1,9.632965E1,1.3819891E2,2.469806E1,2.5209091E1,4.91384E1,2.8579065E1,5.826584E1,5.94776E1,5.5921387E1,9.658728E1,1.8814728E1,2.3513672E1,2.6584427E1,1.2734475E1,2.4225624E1,1.69081E1,2.279369E1,7.371277E0,3.1019989E1,3.248027E1,1.9959091E1,2.614444E1,3.1453415E1,2.6935791E1,6.3842636E1,5.6343903E1,6.0507812E0,1.4142639E1,2.3522543E1,1.0396057E1,1.789418E1,6.388239E0,7.3002205E0,1.3669582E1,1.5654176E1,3.597783E1,9.054179E0,1.6832388E1,2.1234941E1,0E0,1.1566998E1,3.6529873E1,1.8459995E1,2.4447426E1,3.853546E1,2.0314041E1,2.4062592E1,2.1295355E1,2.764569E1,1.6553677E1,1.9329462E1,1.7860046E1,2.1265099E1,3.2436096E1,2.4833641E1,3.1659637E1,5.1658875E1,4.386772E1,0E0,0E0,0E0,0E0,0E0,0E0,0E0,0E0,0E0,0E0,0E0,0E0,0E0,0E0,0E0,0E0,0E0,0E0,0E0,0E0,0E0,0E0,0E0,0E0,0E0,0E0,0E0,0E0,0E0,0E0,0E0,0E0,0E0,0E0,0E0,0E0,0E0,0E0,0E0,0E0,0E0,0E0,0E0,0E0,0E0,0E0,0E0,0E0,0E0,0E0,0E0,0E0,0E0,0E0,0E0,0E0,0E0,0E0,0E0,0E0,0E0,0E0],"parents":[2147483647,0,0,1,1,2,2,3,3,4,4,5,5,6,6,7,7,8,8,9,9,10,10,11,11,12,12,13,13,14,14,15,15,16,16,17,17,18,18,19,19,20,20,21,21,22,22,23,23,24,24,25,25,26,26,27,27,28,28,29,29,30,30,31,31,32,32,33,33,34,34,35,35,36,36,37,37,38,38,39,39,40,40,41,41,42,42,43,43,45,45,46,46,47,47,48,48,49,49,50,50,51,51,52,52,53,53,54,54,55,55,56,56,57,57,58,58,59,59,60,60,61,61,62,62],"right_children":[2,4,6,8,10,12,14,16,18,20,22,24,26,28,30,32,34,36,38,40,42,44,46,48,50,52,54,56,58,60,62,64,66,68,70,72,74,76,78,80,82,84,86,88,-1,90,92,94,96,98,100,102,104,106,108,110,112,114,116,118,120,122,124,-1,-1,-1,-1,-1,-1,-1,-1,-1,-1,-1,-1,-1,-1,-1,-1,-1,-1,-1,-1,-1,-1,-1,-1,-1,-1,-1,-1,-1,-1,-1,-1,-1,-1,-1,-1,-1,-1,-1,-1,-1,-1,-1,-1,-1,-1,-1,-1,-1,-1,-1,-1,-1,-1,-1,-1,-1,-1,-1,-1,-1,-1],"split_conditions":[2.0833333E0,1.5E0,3.0833333E0,1.4285715E0,9E0,9E0,4.75E0,1.675E3,8E0,1.827E3,2E0,1.964E3,2.6E0,3.6666667E0,1E1,5.7735026E-1,1E0,1.1496296E4,1.697E3,3E0,2E0,4.3333335E0,3.5E0,1.5E0,4E0,1.82E-1,1.7511901E0,6E0,5.4E-2,1.2573813E0,8E0,8E0,8E0,2.3223297E-1,1.1666666E0,2.045E3,1.4770979E0,1.3333334E0,2.2509258E0,8.944272E-1,7.4534683E3,1E0,1.0772173E4,3.0129245E-1,2.7758536E-1,5E0,2.111E3,1.1146408E0,1.031E3,9.852351E3,3.1E-1,1E-1,3.3333333E0,1.3784049E0,1.824E3,3.9166667E0,2E0,3.6666667E0,1.96E-1,4E0,4E0,2.9944394E0,8.166667E0,-1.7310893E-2,-1.2843862E-2,-1.2819308E-2,-5.1904544E-3,-5.1359325E-3,2.54473E-2,-1.2849266E-2,-7.7302842E-3,-1.0854007E-2,-1.0702114E-3,-2.6458139E-3,1.3935122E-2,-9.265935E-3,-2.9595045E-3,2.497702E-4,-6.0643952E-2,-4.5148297E-3,3.9001182E-3,-1.1341195E-2,-3.2758198E-3,1.936317E-2,-1.2562046E-3,1.2461328E-3,1.1956307E-2,-1.3086153E-4,6.5288506E-3,1.3719204E-2,-2.7624515E-3,1.0617878E-2,2.3244904E-1,1.8245135E-2,-7.5662504E-3,3.8495593E-2,4.8279483E-3,-1.3938646E-3,1.5578771E-2,1.981132E-2,-4.2519312E-2,8.030727E-3,1.8667268E-2,3.4684066E-3,4.3878835E-2,2.2495842E-2,4.176387E-2,7.5351633E-3,2.5447411E-2,9.127348E-3,4.331296E-2,2.2769911E-2,4.0549237E-2,5.6804724E-2,-6.3216715E-4,4.730582E-2,2.4475398E-2,1.11442484E-1,2.5881408E-2,3.2363003E-1,9.4113246E-2,1.2955432E-1,4.956692E-2,2.4234979E-1,7.086359E-2],"split_indices":[14,10,14,14,6,6,14,0,6,0,14,0,12,10,20,11,8,2,0,6,12,10,10,10,16,5,13,6,5,1,10,6,6,1,12,0,15,10,13,13,2,8,2,1,0,18,0,15,0,2,5,5,10,13,0,14,17,12,5,10,17,13,12,0,0,0,0,0,0,0,0,0,0,0,0,0,0,0,0,0,0,0,0,0,0,0,0,0,0,0,0,0,0,0,0,0,0,0,0,0,0,0,0,0,0,0,0,0,0,0,0,0,0,0,0,0,0,0,0,0,0,0,0,0,0],"split_type":[0,0,0,0,0,0,0,0,0,0,0,0,0,0,0,0,0,0,0,0,0,0,0,0,0,0,0,0,0,0,0,0,0,0,0,0,0,0,0,0,0,0,0,0,0,0,0,0,0,0,0,0,0,0,0,0,0,0,0,0,0,0,0,0,0,0,0,0,0,0,0,0,0,0,0,0,0,0,0,0,0,0,0,0,0,0,0,0,0,0,0,0,0,0,0,0,0,0,0,0,0,0,0,0,0,0,0,0,0,0,0,0,0,0,0,0,0,0,0,0,0,0,0,0,0],"sum_hessian":[2.22586E5,1.62547E5,6.0039E4,8.7746E4,7.4801E4,5.1155E4,8.884E3,4.7036E4,4.071E4,4.8968E4,2.5833E4,3.3921E4,1.7234E4,7.996E3,8.88E2,2.2257E4,2.4779E4,2.2797E4,1.7913E4,3.1243E4,1.7725E4,2.2456E4,3.377E3,2.4019E4,9.902E3,1.2072E4,5.162E3,4.316E3,3.68E3,4.91E2,3.97E2,1.2365E4,9.892E3,1.072E3,2.3707E4,1.6064E4,6.733E3,7.8E3,1.0113E4,8.994E3,2.2249E4,1.1659E4,6.066E3,2.2454E4,2E0,3.326E3,5.1E1,3.335E3,2.0684E4,5.368E3,4.534E3,8.758E3,3.314E3,3.087E3,2.075E3,1.915E3,2.401E3,3.6E2,3.32E3,4.65E2,2.6E1,3.26E2,7.1E1,6.95E3,5.415E3,5.59E3,4.302E3,6.71E2,4.01E2,5.042E3,1.8665E4,1.3904E4,2.16E3,6.493E3,2.4E2,2.956E3,4.844E3,1.0077E4,3.6E1,5.084E3,3.91E3,1.0291E4,1.1958E4,2.16E2,1.1443E4,3.58E3,2.486E3,1.5534E4,6.92E3,2.825E3,5.01E2,4.3E1,8E0,3.04E2,3.031E3,2.17E2,2.0467E4,2.527E3,2.841E3,4.482E3,5.2E1,3.646E3,5.112E3,3.179E3,1.35E2,1.822E3,1.265E3,1.11E3,9.65E2,1.733E3,1.82E2,1.482E3,9.19E2,8.3E1,2.77E2,2.485E3,8.35E2,3.6E1,4.29E2,1E1,1.6E1,1.63E2,1.63E2,4.8E1,2.3E1],"tree_param":{"num_deleted":"0","num_feature":"24","num_nodes":"125","size_leaf_vector":"1"}},{"base_weights":[-1.9973426E-4,-2.4220483E-2,2.0662472E-1,-5.3387605E-2,4.200057E-2,1.705449E-1,5.159376E-1,-7.014815E-2,-3.1232818E-3,4.041748E-3,7.511587E-2,1.1603461E-1,2.4578714E-1,4.271141E-1,1.0402987E0,-5.1472384E-2,-1.0592917E-1,2.0211047E-2,-4.2571623E-2,-2.1284163E-2,7.510425E-2,4.586204E-2,1.2328652E-1,1.273722E-1,-2.2939907E-1,1.9979376E-1,3.6145043E-1,4.7622243E-1,6.401002E-2,1.3982904E0,5.4224044E-1,-7.736215E-2,-1.6399162E-2,-1.2658966E-1,-7.123911E-2,-9.122312E-2,3.2962944E-2,-1.11592874E-1,-1.3182838E-2,4.9667932E-2,-4.5760337E-2,9.3236126E-2,-2.2278862E-1,9.938523E-2,1.54446745E-2,1.1309351E-1,3.501707E-1,8.4182724E-2,2.1851091E-1,-3.969882E-1,8.497915E-2,1.6027437E-1,3.10683E-1,2.5016037E-1,4.9746907E-1,8.475512E-1,4.0866208E-1,-8.8145785E-2,5.7541186E-1,1.05967E0,2.336656E0,9.671753E-1,-4.643638E-2,-8.803125E-3,3.9168057E-4,-3.2366754E-3,4.8786523E-3,-1.541964E-2,-1.02796545E-2,-9.745285E-3,-3.555698E-3,-1.1878478E-2,1.8095626E-2,2.612439E-3,2.2286305E-2,-4.2213625E-3,-1.5282323E-2,-3.8984604E-3,8.044784E-3,4.6832138E-4,1.2252206E-2,-4.9070506E-3,3.961993E-2,4.260345E-3,1.6698921E-2,-3.2338962E-2,-9.454112E-3,2.0446833E-3,1.4538715E-2,-6.382331E-3,3.4795068E-3,1.3783871E-2,1.1678112E-3,2.9150689E-2,8.2153544E-2,1.9436134E-2,3.6916863E-3,2.4865381E-2,-1.177678E-2,-1.7344888E-2,-5.260526E-2,3.2652637E-1,1.2056167E-3,1.2215963E-2,2.7102051E-2,6.2427122E-2,2.5164604E-2,2.351083E-2,2.082928E-1,3.7782326E-2,7.6679185E-2,-6.489695E-2,9.169812E-2,3.661283E-2,1.17342606E-1,2.271921E-2,-4.713374E-2,1.420867E-1,3.3867088E-4,8.482574E-2,2.790448E-1,2.7486688E-1,-3.244984E-2,2.2728457E-3,1.714389E-1,4.56587E-2,-1.2353635E-1],"categories":[],"categories_nodes":[],"categories_segments":[],"categories_sizes":[],"default_left":[0,0,0,0,0,0,0,0,0,0,0,0,0,0,0,0,0,0,0,0,0,0,0,0,0,0,0,0,0,0,0,0,0,0,0,0,0,0,0,0,0,0,0,0,0,0,0,0,0,0,0,0,0,0,0,0,0,0,0,0,0,0,0,0,0,0,0,0,0,0,0,0,0,0,0,0,0,0,0,0,0,0,0,0,0,0,0,0,0,0,0,0,0,0,0,0,0,0,0,0,0,0,0,0,0,0,0,0,0,0,0,0,0,0,0,0,0,0,0,0,0,0,0,0,0,0,0],"id":13,"left_children":[1,3,5,7,9,11,13,15,17,19,21,23,25,27,29,31,33,35,37,39,41,43,45,47,49,51,53,55,57,59,61,63,65,67,69,71,73,75,77,79,81,83,85,87,89,91,93,95,97,99,101,103,105,107,109,111,113,115,117,119,121,123,125,-1,-1,-1,-1,-1,-1,-1,-1,-1,-1,-1,-1,-1,-1,-1,-1,-1,-1,-1,-1,-1,-1,-1,-1,-1,-1,-1,-1,-1,-1,-1,-1,-1,-1,-1,-1,-1,-1,-1,-1,-1,-1,-1,-1,-1,-1,-1,-1,-1,-1,-1,-1,-1,-1,-1,-1,-1,-1,-1,-1,-1,-1,-1,-1],"loss_changes":[1.1067635E3,3.8551355E2,2.5861084E2,1.1673407E2,7.6716736E1,8.5122314E1,1.1231525E2,6.943384E1,3.1897125E1,5.1180313E1,4.5926437E1,4.7186447E1,4.632129E1,3.69162E1,6.1647003E1,6.1998627E1,2.55318E1,3.0942379E1,2.6122944E1,3.6412582E1,4.0379707E1,3.301664E1,2.8440475E1,4.587416E1,2.0212612E1,2.7304352E1,3.7416626E1,4.5437622E1,1.9348284E1,6.20271E1,3.7067005E1,3.406462E1,3.018439E1,1.4653595E1,1.2440598E1,1.679533E1,2.5367046E1,1.09951515E1,2.1827803E1,1.7624865E1,2.2825542E1,2.6297413E1,5.5043087E0,2.668357E1,1.9839718E1,2.9578384E1,1.4388458E1,4.119605E1,3.8020584E1,7.121498E0,3.1037354E1,1.9400665E1,3.0186188E1,3.719407E1,3.5639313E1,2.9688019E1,4.985916E1,2.330737E1,2.7561619E1,5.2885147E1,5.9002716E1,6.0651543E1,3.8241714E1,0E0,0E0,0E0,0E0,0E0,0E0,0E0,0E0,0E0,0E0,0E0,0E0,0E0,0E0,0E0,0E0,0E0,0E0,0E0,0E0,0E0,0E0,0E0,0E0,0E0,0E0,0E0,0E0,0E0,0E0,0E0,0E0,0E0,0E0,0E0,0E0,0E0,0E0,0E0,0E0,0E0,0E0,0E0,0E0,0E0,0E0,0E0,0E0,0E0,0E0,0E0,0E0,0E0,0E0,0E0,0E0,0E0,0E0,0E0,0E0,0E0,0E0,0E0,0E0],"parents":[2147483647,0,0,1,1,2,2,3,3,4,4,5,5,6,6,7,7,8,8,9,9,10,10,11,11,12,12,13,13,14,14,15,15,16,16,17,17,18,18,19,19,20,20,21,21,22,22,23,23,24,24,25,25,26,26,27,27,28,28,29,29,30,30,31,31,32,32,33,33,34,34,35,35,36,36,37,37,38,38,39,39,40,40,41,41,42,42,43,43,44,44,45,45,46,46,47,47,48,48,49,49,50,50,51,51,52,52,53,53,54,54,55,55,56,56,57,57,58,58,59,59,60,60,61,61,62,62],"right_children":[2,4,6,8,10,12,14,16,18,20,22,24,26,28,30,32,34,36,38,40,42,44,46,48,50,52,54,56,58,60,62,64,66,68,70,72,74,76,78,80,82,84,86,88,90,92,94,96,98,100,102,104,106,108,110,112,114,116,118,120,122,124,126,-1,-1,-1,-1,-1,-1,-1,-1,-1,-1,-1,-1,-1,-1,-1,-1,-1,-1,-1,-1,-1,-1,-1,-1,-1,-1,-1,-1,-1,-1,-1,-1,-1,-1,-1,-1,-1,-1,-1,-1,-1,-1,-1,-1,-1,-1,-1,-1,-1,-1,-1,-1,-1,-1,-1,-1,-1,-1,-1,-1,-1,-1,-1,-1],"split_conditions":[2.5833333E0,1.8888888E0,1.57E2,2.7E1,1.7E1,3.3E1,4.75E0,4.5E0,4.5E0,1E1,1.902E3,1.906454E4,3.3333333E0,5.9E0,3E0,8E0,9.931655E3,9.052085E-2,9.3E-2,3E0,6.4E0,2.4E0,1.63E2,9E0,8.3333336E-2,2.088E3,3E0,1.6817588E-1,2.9166666E-1,1.1060922E4,9E0,3.9E0,1.909E3,7E0,3E0,6.4E1,1.55E2,1.8941945E-1,7E1,3.1E0,2.638E3,3E0,1.47E-1,2E0,-5.833333E-1,4.9E0,1.585923E0,3E0,4.2E0,1.7E1,2.2E0,1E1,2.15E3,7.5E0,1.390801E4,-1.6666666E0,7E0,-3.3333334E-1,3E0,1.2E1,1.1E1,2E0,7.990325E3,-8.803125E-3,3.9168057E-4,-3.2366754E-3,4.8786523E-3,-1.541964E-2,-1.02796545E-2,-9.745285E-3,-3.555698E-3,-1.1878478E-2,1.8095626E-2,2.612439E-3,2.2286305E-2,-4.2213625E-3,-1.5282323E-2,-3.8984604E-3,8.044784E-3,4.6832138E-4,1.2252206E-2,-4.9070506E-3,3.961993E-2,4.260345E-3,1.6698921E-2,-3.2338962E-2,-9.454112E-3,2.0446833E-3,1.4538715E-2,-6.382331E-3,3.4795068E-3,1.3783871E-2,1.1678112E-3,2.9150689E-2,8.2153544E-2,1.9436134E-2,3.6916863E-3,2.4865381E-2,-1.177678E-2,-1.7344888E-2,-5.260526E-2,3.2652637E-1,1.2056167E-3,1.2215963E-2,2.7102051E-2,6.2427122E-2,2.5164604E-2,2.351083E-2,2.082928E-1,3.7782326E-2,7.6679185E-2,-6.489695E-2,9.169812E-2,3.661283E-2,1.17342606E-1,2.271921E-2,-4.713374E-2,1.420867E-1,3.3867088E-4,8.482574E-2,2.790448E-1,2.7486688E-1,-3.244984E-2,2.2728457E-3,1.714389E-1,4.56587E-2,-1.2353635E-1],"split_indices":[14,14,4,4,4,4,14,3,3,6,0,2,14,3,3,6,2,1,5,6,3,3,4,6,22,0,9,1,22,2,16,3,0,6,18,4,4,1,4,3,0,3,5,3,22,3,15,6,3,4,12,6,0,12,2,22,9,23,9,6,8,21,2,0,0,0,0,0,0,0,0,0,0,0,0,0,0,0,0,0,0,0,0,0,0,0,0,0,0,0,0,0,0,0,0,0,0,0,0,0,0,0,0,0,0,0,0,0,0,0,0,0,0,0,0,0,0,0,